<?xml version="1.0"?>
<opencv_storage>
<opencv_ml_svm>
  <format>3</format>
  <svmType>C_SVC</svmType>
  <kernel>
    <type>LINEAR</type></kernel>
  <C>1.</C>
  <term_criteria><iterations>1000</iterations></term_criteria>
  <var_count>900</var_count>
  <class_count>2</class_count>
  <class_labels type_id="opencv-matrix">
    <rows>2</rows>
    <cols>1</cols>
    <dt>i</dt>
    <data>
      0 1</data></class_labels>
  <sv_total>1</sv_total>
  <support_vectors>
    <_>
      -2.57076155e-02 1.20470189e-02 9.21130553e-03 -4.44392022e-03
      -1.42243935e-03 -3.57524346e-04 4.50935168e-03 8.18175450e-03
      -2.58399155e-02 -1.07492972e-02 3.41336317e-02 1.13911144e-02
      -2.44429987e-02 -3.56190205e-02 -9.46223177e-03 -1.58075113e-02
      -3.14547145e-03 -3.08265500e-02 2.78956573e-02 9.09109935e-02
      7.08318725e-02 9.69404913e-03 1.97883812e-03 5.43108815e-03
      -5.91549603e-03 1.60407647e-02 -6.99964701e-04 6.10773824e-02
      9.85848159e-02 1.12388268e-01 1.71145629e-02 -4.82803164e-03
      4.10468038e-03 6.63273968e-05 3.92001960e-03 8.25721677e-03
      3.01628560e-02 5.20083830e-02 1.66584067e-02 -2.25186348e-02
      -2.32076161e-02 -1.33356117e-02 -1.11053772e-02 -4.95443877e-04
      1.00047141e-02 3.74485776e-02 4.51069362e-02 1.18720811e-02
      -6.69344887e-02 -1.97578743e-02 -2.41573583e-02 -1.76901259e-02
      1.05614727e-03 3.80009636e-02 4.12034765e-02 7.89605230e-02
      7.90576562e-02 -7.25058722e-04 -2.24391185e-02 -1.88964326e-02
      -3.44911125e-03 2.11452646e-03 1.23620769e-02 3.46421562e-02
      5.51777296e-02 3.88871841e-02 -5.33231124e-02 -3.78913209e-02
      -3.36327031e-02 -8.57440755e-03 3.41452728e-03 2.02980135e-02
      1.61960721e-02 3.32345702e-02 1.48016419e-02 -4.20943238e-02
      -3.26545946e-02 -1.90735403e-02 -1.63972238e-03 7.35609140e-03
      2.25084089e-02 7.74141308e-03 3.34076323e-02 1.19162565e-02
      -1.11718699e-02 -3.75031009e-02 -3.95359918e-02 4.66526859e-02
      3.39587070e-02 -5.00608352e-04 5.43447882e-02 1.42743299e-02
      5.25051495e-03 -2.17621941e-02 4.59462665e-02 -1.09947796e-04
      5.33618033e-03 5.83693432e-03 4.14640643e-02 2.98182424e-02
      1.01861628e-02 1.15223005e-02 4.90267482e-03 -3.42021137e-03
      -1.24477344e-02 9.08235926e-03 1.48150278e-02 3.20134498e-02
      6.21329760e-03 1.47801042e-02 2.82532210e-03 -2.23711412e-02
      -3.89056839e-02 -2.58118901e-02 4.34944294e-02 3.60712335e-02
      -3.92003357e-03 1.04902191e-02 9.65797342e-03 4.24358266e-04
      -2.81196944e-02 -1.50728198e-02 3.79151781e-03 2.55879890e-02
      1.74813345e-02 2.63355542e-02 1.87208001e-02 7.29748933e-03
      -6.19876012e-03 -8.95959232e-03 -2.50427909e-02 -3.46570201e-02
      3.62049788e-02 4.18842882e-02 3.32760178e-02 2.15944313e-02
      5.98873803e-03 -8.24771728e-03 -1.01014087e-02 -3.35269384e-02
      -1.96746294e-03 8.62616748e-02 8.22608694e-02 5.07279076e-02
      -1.17365820e-02 1.67804852e-03 -2.56139580e-02 -5.46756610e-02
      -5.23540005e-02 -5.80210099e-03 2.02101544e-02 3.17253023e-02
      1.52837706e-03 -2.70614456e-02 -3.58168338e-03 -2.95260362e-03
      -5.50831994e-03 6.10076915e-03 5.50657045e-03 1.72000825e-02
      4.03593713e-03 -9.01336409e-03 1.61083359e-02 3.06889694e-03
      1.68841647e-03 -6.83239521e-03 -6.16972297e-02 3.74883553e-03
      7.66155347e-02 8.00279528e-02 5.10205403e-02 3.37434444e-03
      -7.89844897e-03 -8.33527185e-03 -2.52637244e-03 4.41292161e-03
      1.09280068e-02 5.49893901e-02 4.75573093e-02 2.02459898e-02
      1.85603704e-02 1.21266954e-01 1.04522571e-01 3.48854922e-02
      5.17241508e-02 1.26425782e-02 -1.68578178e-02 1.00584689e-03
      -3.81903462e-02 5.82914017e-02 9.85910296e-02 1.10461548e-01
      1.44343264e-02 -4.28903587e-02 3.47945001e-03 -1.49902829e-04
      -2.46458338e-03 1.11342324e-02 -5.62599376e-02 1.19813103e-02
      9.38287601e-02 3.85794453e-02 9.81992036e-02 4.52430099e-02
      1.97800361e-02 -1.56904235e-02 -8.06125924e-02 -1.21290036e-01
      -1.91595461e-02 4.68619801e-02 8.27504694e-03 5.50473295e-02
      1.20961135e-02 1.90287945e-03 -1.09112170e-02 -1.32458329e-01
      2.98077203e-02 8.33343416e-02 9.70054194e-02 7.65551534e-03
      -1.93096474e-02 -2.25319341e-02 -3.23362625e-03 -3.21131875e-03
      1.46427788e-02 1.22909900e-02 1.94117669e-02 1.32505354e-02
      -9.25477874e-03 5.42283524e-03 -2.82894466e-02 -3.71775008e-03
      8.45553912e-03 1.05118537e-02 -3.90622169e-02 5.82243269e-03
      1.19329449e-02 4.74864105e-03 -4.56556067e-04 -2.41433401e-02
      -2.74484996e-02 4.44829417e-03 -3.56502421e-02 -2.18074191e-02
      1.48704089e-03 -3.12212575e-03 -1.40169291e-02 2.74959132e-02
      -2.34550349e-02 -2.13885475e-02 7.95503089e-04 1.09166028e-02
      1.78177971e-02 4.27251589e-03 -8.62222351e-03 -1.58671997e-02
      3.11897192e-02 -5.50119486e-03 3.37142521e-03 7.10787997e-03
      1.70269497e-02 1.35324346e-02 4.69854474e-03 1.19335651e-02
      8.40929057e-03 2.82093827e-02 -7.81932008e-03 -1.93187371e-02
      5.59319742e-03 1.62279997e-02 3.11843753e-02 2.54744734e-03
      -6.81961887e-03 -1.84720177e-02 -4.02142368e-02 -1.75325549e-03
      9.57245531e-04 -8.32672417e-03 3.55771594e-02 4.26060744e-02
      2.91447411e-03 1.07593054e-03 -6.09039096e-03 -2.24188976e-02
      1.01325859e-03 -2.29739938e-02 2.54658377e-03 8.40126909e-03
      1.20883211e-02 2.75364867e-03 2.11926200e-03 7.04206200e-03
      -1.49381254e-03 -6.17391197e-03 -8.97667464e-03 1.44426934e-02
      1.50516909e-02 9.85276140e-03 2.35967641e-03 -8.19234457e-03
      -3.71384714e-03 1.29812229e-02 5.57351625e-03 1.02669343e-01
      9.28889737e-02 3.78366038e-02 3.77055109e-02 2.44165175e-02
      -2.81826872e-03 -2.13010591e-02 -1.66860111e-02 -6.59482321e-04
      -3.06674130e-02 -9.33222566e-03 1.05842762e-02 -4.01686691e-02
      2.33487394e-02 -2.64998470e-02 -4.39248942e-02 -3.69334966e-02
      5.54098515e-03 3.27431411e-03 -1.08881211e-02 -5.16589954e-02
      1.49954883e-02 3.60063650e-03 2.44037621e-03 3.60163953e-03
      -1.16263675e-02 5.71534038e-03 8.82207528e-02 9.19413790e-02
      5.27427867e-02 -2.56267451e-02 -1.80384226e-03 -1.48137554e-03
      2.85844691e-02 6.65682927e-02 3.49782258e-02 4.99281138e-02
      5.07448986e-02 4.99337539e-03 -1.11121885e-01 -6.19101431e-03
      -2.33958894e-03 4.48450074e-03 2.06812620e-02 4.38449485e-03
      2.67619174e-02 -2.63489652e-02 -1.02867559e-01 -6.68317378e-02
      -1.47271985e-02 1.32523244e-02 5.39065972e-02 1.03728920e-01
      2.38722749e-02 6.50483146e-02 -5.94115956e-03 -5.44701517e-02
      -9.93960351e-02 -1.58948991e-02 2.41660848e-02 2.79265661e-02
      1.43307015e-01 4.77087088e-02 1.03399446e-02 -3.24684493e-02
      -9.41733792e-02 -1.71104707e-02 -1.02069508e-02 1.62980556e-02
      1.23672811e-02 9.39413533e-02 2.13172603e-02 1.22698648e-02
      7.40483962e-03 -3.27356793e-02 -8.46973658e-02 -2.49456242e-02
      1.02218064e-02 6.67892098e-02 1.59747884e-01 3.18134688e-02
      4.65628179e-03 -2.38215607e-02 -8.77695903e-02 -1.96086187e-02
      -3.79127637e-03 -1.43645527e-02 3.79616767e-02 1.00988470e-01
      8.15628842e-03 8.66940338e-03 2.72856234e-03 -1.38118798e-02
      -2.43516220e-03 -4.18735249e-03 3.74218356e-03 5.28246956e-03
      -2.22710799e-03 -3.13930097e-03 -4.36158990e-03 4.39901603e-03
      -1.80756114e-02 -1.29305143e-02 7.75898667e-03 1.04620270e-02
      1.84958223e-02 1.61709748e-02 -2.12514470e-03 -3.40348505e-03
      -4.77700680e-03 -9.93821584e-03 -8.75200052e-03 5.25792057e-05
      -2.41693985e-02 -6.38044265e-04 -3.36604984e-03 -1.98830059e-03
      -3.42826243e-03 -4.17785067e-03 -3.33391898e-03 -1.76583778e-03
      1.80417616e-02 -6.70220412e-04 1.58418734e-02 2.36537810e-02
      -1.26040801e-02 -7.41169369e-03 -1.57680549e-02 1.74038322e-03
      -1.80464927e-02 9.24049225e-03 -1.75258692e-03 1.32817132e-02
      5.02858125e-02 3.06181214e-03 3.70553602e-03 6.67735748e-03
      -8.49002693e-03 -1.97022688e-02 9.34825186e-03 3.79548757e-03
      -1.74084008e-02 3.69718857e-02 -1.94427036e-02 -1.19030494e-02
      2.12628767e-03 -2.97578052e-02 -2.29851133e-03 1.87072009e-02
      6.06629718e-03 2.57705171e-02 2.95534041e-02 -1.99085958e-02
      -1.71358678e-02 -8.16334970e-03 -5.49690751e-03 -2.17638519e-02
      6.12408330e-04 -9.04975241e-05 1.22457364e-04 2.62509398e-02
      -2.46592164e-02 -1.25159603e-02 -2.37428979e-03 -2.43240148e-02
      -5.24559990e-03 1.41217401e-02 7.08782487e-03 -6.64204219e-03
      1.73566826e-02 -4.39234963e-03 -4.66351979e-04 -7.88576622e-03
      -1.60629861e-02 -9.63092968e-03 8.06786958e-03 1.55109004e-03
      -5.18113701e-03 -7.60134775e-03 -3.34778364e-04 2.35603703e-03
      -1.68727748e-02 2.28663697e-03 2.09402619e-03 4.68960265e-03
      3.36542702e-03 7.61928782e-03 3.09723355e-02 -1.10803833e-02
      -7.36718113e-03 1.40392268e-03 -4.54751682e-03 8.14140774e-03
      -3.96473706e-03 -4.26744251e-03 9.72196274e-03 2.80318619e-03
      -9.38950852e-03 -1.94647703e-02 1.03619201e-02 5.90396253e-03
      -3.49353701e-02 -6.65413740e-04 1.17432084e-02 1.55339791e-02
      6.65862933e-02 1.23337572e-02 1.22795915e-02 -2.05194969e-02
      -2.65983120e-02 -9.17479545e-02 -1.92558318e-02 2.39741262e-02
      6.30549565e-02 1.64237753e-01 3.33036296e-02 1.78168509e-02
      -2.40003895e-02 -7.88082257e-02 -8.60311091e-03 -2.80670181e-04
      1.12185013e-02 1.00829564e-02 7.51206800e-02 2.85888519e-02
      -1.18926009e-02 -1.33028170e-02 -1.36365909e-02 -7.80082420e-02
      -3.86627228e-03 3.28915007e-02 4.57581542e-02 1.55571654e-01
      7.28282928e-02 2.36883815e-02 -4.37022150e-02 -6.40923083e-02
      -7.02801198e-02 -2.41630748e-02 -1.14282584e-02 5.80192395e-02
      1.17744811e-01 2.97602545e-02 2.28806194e-02 -1.35895675e-02
      -6.14274107e-02 -1.13024153e-01 -1.81020629e-02 -2.83239651e-02
      2.48016454e-02 7.31589645e-02 7.74329854e-03 2.10501142e-02
      -1.42340716e-02 -1.05930157e-01 -3.99746187e-02 -3.22696567e-02
      2.36416049e-03 5.70550747e-03 9.34966207e-02 3.84758934e-02
      3.64899449e-02 1.86380874e-02 5.17150527e-03 1.15696881e-02
      -2.16515418e-02 -2.35445537e-02 5.82707766e-03 2.85854489e-02
      1.78841017e-02 7.53952935e-02 8.66236463e-02 5.35470732e-02
      -3.07563804e-02 -1.93405636e-02 -4.87812348e-02 -2.85617821e-02
      4.09867847e-03 1.50612963e-03 -2.00689814e-04 -3.45932064e-03
      -3.15649174e-02 -8.22506938e-03 1.64910611e-02 -2.38439976e-03
      -2.10754164e-02 6.91343658e-03 -1.33802406e-02 -1.98105630e-02
      -6.02471735e-03 -1.34450383e-02 -3.23069585e-03 -6.76536188e-03
      -1.62009317e-02 -1.38440123e-02 8.58817715e-03 7.57318176e-03
      7.05709383e-02 6.54745772e-02 1.60177685e-02 6.21682673e-04
      2.53670681e-02 1.83848459e-02 -9.26110428e-03 1.16138142e-02
      2.46430486e-02 5.21640619e-03 9.34749562e-03 1.33834066e-04
      -9.40500479e-03 3.39806005e-02 2.40557343e-02 1.66212711e-02
      2.97932439e-02 -8.38265102e-03 -1.56864449e-02 3.80953745e-04
      -7.48258317e-03 -1.76283419e-02 8.87601823e-03 3.08183115e-03
      -1.58193093e-02 4.29490162e-03 -1.70125533e-02 1.81337111e-02
      1.35146109e-02 -1.99178755e-02 -1.99665874e-02 2.64129527e-02
      2.62904614e-02 4.62763803e-03 -9.59091540e-03 9.35476087e-03
      -1.02060502e-02 4.06337529e-03 -2.19719652e-02 -1.81078296e-02
      7.79926544e-03 -7.16886995e-03 -7.93436449e-03 -3.99921648e-02
      -1.70217492e-02 -9.44092032e-03 1.60383787e-02 -1.69091262e-02
      -4.24094219e-03 -3.20014451e-03 -7.33606378e-03 -2.21186373e-02
      -1.63206160e-02 -3.02865002e-02 -1.17459614e-02 -8.96685233e-04
      -5.61314356e-03 -2.81592105e-02 -9.37848538e-03 6.72418246e-05
      2.16316152e-03 1.70161594e-02 6.60350407e-03 -5.53062931e-02
      3.68123432e-03 -3.16223241e-02 6.19123457e-03 9.22679156e-03
      -5.57147944e-03 -1.47024319e-02 -1.20861912e-02 -1.97812859e-02
      -7.77066825e-03 1.34143466e-02 -5.90320160e-05 2.12426912e-02
      8.36711079e-02 1.01135597e-01 9.23873298e-03 3.08714844e-02
      -5.08053321e-03 -1.81879774e-02 8.06926182e-05 6.24667527e-03
      -1.35215238e-01 -2.86491401e-03 1.85394641e-02 5.57923177e-03
      1.65980365e-02 1.40833529e-02 -3.88250053e-02 -1.01226065e-02
      -1.44848645e-01 -4.78151031e-02 1.95263550e-02 4.61060591e-02
      2.73886267e-02 1.05783887e-01 6.33597672e-02 -2.58230581e-03
      -2.74990927e-02 -5.87259717e-02 5.55400811e-02 1.03977926e-01
      1.01055406e-01 1.41150514e-02 1.82466535e-03 4.43609618e-03
      -1.65992100e-02 -2.83094333e-03 2.38246024e-02 6.68606237e-02
      9.08786952e-02 7.23173991e-02 2.59366203e-02 8.36511999e-02
      2.61960272e-02 -8.47196486e-03 -1.46846958e-02 1.61506534e-02
      4.33121901e-03 -1.78945158e-02 3.07047111e-03 1.22797923e-04
      1.03756157e-03 1.45357298e-02 4.94272746e-02 5.36221154e-02
      3.53790559e-02 8.91766325e-03 -5.45785995e-03 9.41886625e-04
      3.77208879e-03 -2.21069008e-02 5.42042963e-03 7.25704432e-02
      7.51207396e-02 3.46627161e-02 -1.06570153e-02 -3.60360625e-03
      -6.02935068e-03 5.63815376e-03 -6.59813453e-03 2.44850176e-03
      2.80644987e-02 8.23213719e-04 -2.51052584e-02 -4.57797423e-02
      -4.84739477e-03 -5.42332325e-03 -1.51563948e-02 -5.70732616e-02
      -7.14382716e-03 8.35147034e-03 2.61426475e-02 -2.17234828e-02
      3.26095102e-03 2.04398367e-03 8.79963674e-03 -4.82168281e-03
      -1.24867400e-02 -1.27794733e-02 7.61983246e-02 6.66626915e-02
      8.51035770e-03 2.44521387e-02 1.56180067e-02 1.93628296e-02
      -4.65313764e-03 -2.50279177e-02 -2.39211153e-02 2.89943963e-02
      3.80114987e-02 2.21910998e-02 -2.01780815e-02 -6.29629125e-04
      -9.29544866e-03 -1.64289474e-02 -3.56344394e-02 -2.54170615e-02
      4.18785680e-03 3.54927517e-02 -4.67646262e-03 2.05401797e-02
      3.75993736e-03 1.06247887e-03 -1.58523396e-02 9.97565407e-03
      -1.84545182e-02 3.57664265e-02 4.03333716e-02 1.83440447e-02
      1.27967671e-02 1.25258658e-02 1.95385441e-02 1.27353994e-02
      -2.25552134e-02 -1.07478083e-03 1.92211885e-02 1.80615019e-02
      1.14307888e-02 1.95851810e-02 -2.36384291e-03 -1.72912609e-02
      -9.43196428e-05 -2.21610870e-02 -2.05817632e-03 -5.77850826e-03
      8.67437478e-03 1.77443177e-02 2.93634329e-02 1.17969397e-03
      -2.67006713e-03 -5.56354062e-04 -1.07557420e-02 -8.40169669e-04
      1.63489510e-03 3.27822566e-02 3.11079845e-02 5.86041771e-02
      -1.98190268e-02 -2.28835642e-02 -7.81754311e-03 -8.09929520e-03
      -1.24257440e-02 -1.50403492e-02 -1.32773537e-03 4.88386638e-02
      2.26227436e-02 2.97671203e-02 1.16227092e-02 -3.72209884e-02
      -1.96399037e-02 -1.91643946e-02 5.51031576e-03 8.05797521e-03
      1.25951292e-02 2.14742012e-02 7.52857402e-02 8.47938284e-02
      -4.02188301e-03 -4.71693948e-02 -1.53592238e-02 -6.21092599e-03
      5.11304126e-04 -3.48057668e-03 7.25493431e-02 2.29875967e-02
      1.04638562e-03 -3.62355635e-02 -3.36227473e-03 -1.55514460e-02
      -1.62008945e-02 -2.02845479e-03 7.17419907e-02 5.69491424e-02
      4.97042686e-02 5.42863719e-02 -3.10775451e-02 -4.49811593e-02
      -1.73244383e-02 -1.56668797e-02 -1.13780180e-03 3.76839191e-02
      4.09516580e-02 9.08210948e-02 8.53208303e-02 -4.76619927e-03
      -3.74703780e-02 -1.05862236e-02 -1.51234819e-02 4.35393304e-04
      1.16441986e-02 5.33305332e-02 9.28959921e-02 4.50607315e-02
      -2.10146583e-03 -1.95742748e-03 1.50777446e-02 8.75027012e-03
      6.02247380e-03 8.56109895e-03 4.54399660e-02 5.98006137e-02
      4.92761806e-02 -3.30086164e-02 -5.35705872e-02 -3.05163413e-02
      -2.17230804e-02 -1.25253154e-03 1.76462736e-02 2.06775516e-02
      4.82892208e-02 5.39419912e-02 -4.41994378e-03 -1.87181234e-02
      4.42329235e-03 1.33046983e-02 1.20874550e-02 8.29692371e-03</_></support_vectors>
  <uncompressed_sv_total>45</uncompressed_sv_total>
  <uncompressed_support_vectors>
    <_>
      5.22506952e-01 5.22506952e-01 5.22506952e-01 7.17221701e-04
      2.91310579e-01 0. 0. 0. 2.29122922e-01 6.20437600e-02
      5.72219081e-02 1.03649475e-01 0. 1.34968206e-01 0. 0. 0.
      6.19563647e-03 3.42467055e-02 6.67328341e-03 1.77862961e-02 0.
      2.33688741e-03 0. 0. 0. 2.65624914e-02 0. 0. 0. 0. 3.86803737e-03
      0. 0. 0. 0. 2.79619335e-03 8.52000713e-03 6.76524639e-02
      2.32774355e-02 3.10391665e-01 4.39727977e-02 5.70064485e-02
      7.43742508e-04 1.63637893e-03 3.34494188e-02 6.87879473e-02
      3.17923009e-01 9.89200845e-02 3.64210904e-01 1.88148603e-01
      2.47156933e-01 9.99353128e-04 1.46369124e-02 4.92534309e-04
      7.28692339e-06 5.83449639e-02 4.50368561e-02 2.93150127e-01
      9.58071500e-02 6.29878119e-02 8.92843294e-04 9.04890359e-04
      1.56077638e-03 9.52291419e-04 2.52329528e-01 1.88464493e-01
      3.64210904e-01 3.64210904e-01 2.73048997e-01 1.30167708e-03
      1.89684867e-03 3.25779729e-02 5.57622761e-02 1.60307586e-01
      4.62587364e-02 4.34070438e-01 8.77195373e-02 1.16864420e-01
      2.78650154e-03 1.78520177e-02 7.53765833e-03 2.20219814e-03
      4.48051258e-04 8.58327970e-02 4.34070438e-01 1.67018220e-01
      1.05190858e-01 5.02419733e-02 8.63851048e-03 1.68856094e-03
      1.20698148e-03 1.18486382e-01 8.78395215e-02 4.34070438e-01
      1.91862106e-01 1.28328443e-01 4.43651224e-04 1.53282238e-03
      3.71826987e-04 8.24916424e-05 4.20328579e-04 1.08598098e-01
      4.34070438e-01 2.28976876e-01 7.35884765e-03 3.73320181e-05
      3.55355616e-04 2.11815326e-03 0. 5.38572145e-04 9.63751972e-02
      5.32590330e-01 2.05358356e-01 1.07720301e-01 3.80157419e-02
      2.50037666e-03 1.70162052e-03 0. 2.44805531e-04 8.29002168e-03
      2.81046867e-01 2.46837307e-02 6.74954755e-03 8.80084641e-04
      1.87788636e-03 2.93457560e-04 0. 8.64753907e-04 1.93131030e-01
      5.32590330e-01 3.86298031e-01 1.28858658e-02 0. 2.93457560e-04
      1.33389796e-04 0. 3.93069960e-04 4.53041270e-02 2.95303077e-01
      8.47335905e-02 2.98009021e-03 0. 1.33389796e-04 6.41789287e-02 0.
      0. 0. 1.21195316e-01 1.02608500e-03 1.76136464e-01 1.96797326e-01
      9.97104645e-02 4.61771816e-01 0. 0. 0. 1.03105865e-01
      1.31925195e-03 4.72151577e-01 4.72151577e-01 4.72151577e-01 0. 0.
      0. 0. 1.05878071e-05 0. 0. 0. 0. 3.80652957e-02 0. 0. 0.
      5.23229537e-04 0. 1.69203412e-02 2.63394769e-02 4.12794463e-02 0.
      0. 0. 0. 0. 0. 0. 0. 0. 0. 0. 0. 0. 2.70263874e-03 0. 0. 0. 0.
      4.39888388e-01 7.28647634e-02 1.11311890e-01 0. 0. 0. 0. 0.
      4.39888388e-01 4.39888388e-01 4.26727206e-01 1.47599474e-01 0.
      3.17518413e-03 0. 0. 0. 4.39888388e-01 5.88331546e-04
      7.19082236e-05 1.77645162e-02 5.24609052e-02 2.04834864e-01
      1.02674372e-01 1.77380946e-02 3.28736380e-04 6.17900921e-04
      1.51796336e-03 4.21499950e-04 7.64096528e-02 2.22377867e-01
      3.80862117e-01 3.80862117e-01 7.58688301e-02 7.91815226e-04
      1.49999361e-03 3.03686559e-01 9.24455374e-02 5.07456437e-02
      3.87485586e-02 2.12955967e-01 7.64085576e-02 2.16833316e-03
      3.47206689e-04 2.33623236e-01 2.47380033e-01 3.48968990e-02
      9.13821310e-02 1.65956095e-01 3.80862117e-01 3.30260783e-01
      6.83309883e-03 1.48693647e-03 1.61379963e-01 1.41821534e-03
      4.71321458e-04 3.89381796e-02 1.12539738e-01 3.86012346e-01
      2.24284425e-01 3.94867361e-02 7.35136622e-04 1.34805718e-03
      2.83138710e-04 3.02703775e-05 1.43544836e-04 1.99299186e-01
      3.86012346e-01 2.98905790e-01 1.69003010e-02 1.04973660e-04
      2.77988147e-04 5.17235249e-02 1.19781271e-02 4.55755107e-02
      8.43057856e-02 3.86012346e-01 1.68564782e-01 4.02236637e-03
      1.60481955e-03 2.83726398e-02 3.27200703e-02 3.04797068e-05
      9.12069081e-05 1.87466845e-01 3.86012346e-01 3.51122528e-01
      3.43523994e-02 3.17379422e-02 4.23321091e-02 2.20288319e-04 0.
      1.50061474e-04 2.58069992e-01 3.44784111e-01 3.44784111e-01
      2.13888828e-02 0. 2.20288319e-04 1.00131052e-04 0. 6.82097598e-05
      6.05642498e-02 1.69882357e-01 8.88484716e-02 4.93589602e-03 0.
      1.00131052e-04 1.62911668e-01 0. 0. 2.40662843e-01 3.44784111e-01
      3.44784111e-01 4.38974947e-02 6.96711391e-02 2.03625858e-01
      3.07147980e-01 0. 0. 5.56605347e-02 2.02918470e-01 1.07932523e-01
      2.29898002e-02 1.05712198e-01 3.44784111e-01 0. 0. 0. 0. 0. 0. 0.
      0. 0. 0. 0. 0. 0. 0. 0. 0. 0. 0. 4.55265284e-01 0. 0. 0.
      1.01686863e-04 0. 9.33383256e-02 3.65009516e-01 4.55265284e-01
      4.55265284e-01 0. 0. 0. 3.44255037e-04 8.10536847e-04
      1.10333979e-01 1.10761367e-01 4.55265284e-01 2.91691750e-01
      4.73966040e-02 8.71161148e-02 1.35460065e-03 1.12357398e-03
      1.44450431e-04 7.29637395e-06 0. 2.91691750e-01 2.91691750e-01
      1.77419737e-01 7.99406543e-02 6.81014685e-03 1.97866987e-02 0. 0.
      0. 2.91691750e-01 2.91691750e-01 7.66031519e-02 1.72775522e-01
      6.88957497e-02 5.53280860e-02 2.40811077e-03 4.00360255e-03
      1.48253993e-03 2.91691750e-01 2.91691750e-01 2.91691750e-01
      2.91691750e-01 1.58465132e-01 1.71569765e-01 4.60367708e-04
      7.32077460e-04 3.30693874e-04 2.91691750e-01 2.75556356e-01
      2.01575503e-01 1.03920795e-01 2.07081344e-02 1.12683065e-01
      1.51176741e-02 3.23914312e-04 1.08246611e-04 2.75556356e-01
      2.75556356e-01 5.19428141e-02 1.15752243e-01 4.13109362e-02
      2.75556356e-01 6.44434839e-02 7.21842749e-04 5.95078571e-04
      2.75556356e-01 2.75556356e-01 2.69961089e-01 2.75556356e-01
      1.10653989e-01 2.75556356e-01 2.40990179e-04 7.94041494e-04
      7.56406633e-04 2.75556356e-01 2.58594334e-01 4.12856527e-02
      7.11896569e-02 3.75108682e-02 2.01917529e-01 1.90917548e-04
      3.20939667e-04 6.28764916e-04 1.61784425e-01 2.96910465e-01
      5.46522662e-02 2.09372029e-01 7.44089112e-02 3.85281533e-01
      1.23454988e-01 1.93457620e-03 2.31577642e-03 1.86715230e-01
      2.25891516e-01 1.57034869e-04 4.69908060e-04 1.19017377e-01
      3.85281533e-01 3.85281533e-01 1.06630750e-01 1.45329461e-01
      2.65836656e-01 1.69584617e-01 2.11515930e-02 5.77626154e-02
      3.67137901e-02 1.67386442e-01 3.08717747e-04 3.82130733e-04
      4.66904516e-04 1.07949920e-01 1.31189167e-01 8.31199139e-02
      1.25063378e-02 2.36156886e-03 2.55298555e-01 6.14184700e-02
      4.79099825e-02 5.26309349e-02 1.41368926e-01 2.76060551e-01
      1.19488643e-04 2.89523159e-05 4.13170122e-02 2.91575402e-01
      1.89488232e-01 3.67222428e-02 8.78782719e-02 2.91575402e-01
      2.91575402e-01 2.73178826e-04 1.31601428e-05 1.06922071e-02
      1.06233604e-01 4.86177057e-02 3.54597196e-02 1.90339580e-01
      2.91575402e-01 1.74834549e-01 1.39980972e-01 1.13705248e-02
      2.42878366e-02 2.64196694e-01 5.11657335e-02 3.59528027e-02
      4.88970280e-02 2.03675449e-01 2.91575402e-01 1.40629649e-01
      8.70336592e-03 5.02384715e-02 2.91575402e-01 9.16565731e-02
      6.17831685e-02 1.57380521e-01 2.91575402e-01 3.12157869e-01
      3.52579053e-04 5.08577286e-05 4.68848622e-04 2.23771222e-02
      8.04710016e-03 4.55814712e-02 1.68878317e-01 3.12157869e-01
      3.12157869e-01 2.27626209e-04 6.53885072e-05 1.38652031e-04
      3.57805658e-03 4.68591508e-03 7.91055262e-02 8.91413987e-02
      3.12157869e-01 3.12157869e-01 1.15610417e-02 2.20383503e-04
      1.27363289e-02 3.12157869e-01 1.39774546e-01 6.11454770e-02
      1.60589948e-01 3.12157869e-01 3.12157869e-01 5.00777736e-04
      2.83350208e-04 1.22693309e-03 7.49179050e-02 7.56484717e-02
      7.41144419e-02 9.11316425e-02 3.12157869e-01 1.75760165e-01
      1.60542488e-01 1.83099300e-01 1.67252272e-01 2.16918334e-01
      9.34006460e-03 1.07415840e-01 1.16926923e-01 1.52023181e-01
      2.46221974e-01 2.46221974e-01 2.46221974e-01 2.11372063e-01
      2.46221974e-01 1.87927485e-03 5.44853462e-03 4.44397191e-03
      1.77873760e-01 2.46221974e-01 1.76235840e-01 2.42186338e-01
      2.22559154e-01 2.46221974e-01 1.30992696e-01 2.46221974e-01
      1.88580662e-01 1.86292559e-01 8.30382034e-02 7.56293386e-02
      6.39582425e-02 5.95964640e-02 1.62423566e-01 4.35070880e-02
      6.87192157e-02 8.46816134e-03 5.62825799e-02 2.78936118e-01
      2.78936118e-01 2.78936118e-01 1.76454768e-01 2.78936118e-01
      1.08924671e-03 3.13532818e-03 2.88716797e-03 2.78936118e-01
      2.78936118e-01 1.00982219e-01 2.07700804e-01 1.33927763e-01
      2.78936118e-01 2.51364632e-04 2.18955684e-04 1.26146339e-03
      1.84058979e-01 1.77447438e-01 7.25870356e-02 1.16321720e-01
      2.46504284e-02 2.71950901e-01 1.68509986e-02 2.12045610e-02
      4.71553989e-02 1.56067520e-01 1.91503420e-01 3.85460518e-02
      1.23316221e-01 5.79356514e-02 2.78936118e-01 1.23467613e-02
      1.68177728e-02 5.91929033e-02 1.60102054e-01 3.17704707e-01
      4.15347144e-02 1.38584942e-01 2.99228936e-01 3.17704707e-01 0. 0.
      1.22894242e-03 1.88708633e-01 1.57520950e-01 2.79273838e-01
      4.07518968e-02 1.31028686e-02 3.17704707e-01 2.33324314e-03
      2.23060593e-01 1.75290391e-01 2.08106279e-01 2.06364200e-01
      9.12906975e-03 1.07594773e-01 1.40877992e-01 3.17704707e-01 0.
      3.03469528e-03 6.29266798e-02 1.47184581e-01 4.36710827e-02
      2.21867915e-02 3.12228990e-03 4.06542514e-03 3.08341175e-01 0.
      1.00762315e-01 8.05118009e-02 6.85804784e-02 1.42760530e-01
      2.62439132e-01 2.10341066e-02 6.66828007e-02 2.99783975e-01
      9.45900679e-02 1.53888226e-01 1.42691031e-01 2.51841754e-01
      2.41489097e-01 2.63205618e-01 1.61999557e-02 1.41412899e-01
      2.99783975e-01 1.84854358e-01 2.18667209e-01 2.58497804e-01
      2.99783975e-01 9.61853787e-02 2.77598016e-02 1.77663343e-03
      2.84872428e-02 1.75440922e-01 2.35378966e-02 7.93861449e-02
      6.70085400e-02 1.25812784e-01 1.49338156e-01 3.04875597e-02
      1.48516032e-03 6.31721765e-02 2.55476713e-01 3.45405787e-02
      1.13248326e-01 8.73342156e-02 1.92986369e-01 1.50038525e-01
      2.09403243e-02 5.06016309e-04 3.52886356e-02 2.88643122e-01
      1.84854552e-01 7.63464719e-02 1.75744802e-01 2.88643122e-01
      2.12190613e-01 5.74310608e-02 1.26003072e-01 8.63738135e-02
      2.57226616e-01 1.50706828e-01 1.91747341e-02 4.32443842e-02
      2.51661807e-01 4.24492322e-02 5.62883262e-03 1.53687522e-02
      1.59034226e-02 1.36271536e-01 9.28813685e-03 2.05240585e-02
      2.24128775e-02 7.13556856e-02 2.88643122e-01 1.03616126e-01
      2.88643122e-01 2.88643122e-01 2.88643122e-01 2.21388534e-01
      6.86483309e-02 3.55527438e-02 2.88643122e-01 2.52193898e-01
      9.94919464e-02 2.52193898e-01 6.45808727e-02 2.52193898e-01
      1.53159723e-01 2.52193898e-01 4.13072146e-02 1.26330659e-01
      9.74779353e-02 1.07870437e-02 3.12523879e-02 1.68567374e-02
      1.97301388e-01 6.65294677e-02 1.12262189e-01 5.57806157e-02
      1.17512971e-01 1.78069308e-01 3.51295993e-02 1.19752698e-01
      3.96075798e-03 2.52193898e-01 1.55942619e-01 2.52193898e-01
      2.52193898e-01 2.15124920e-01 2.52193898e-01 1.78739149e-03
      1.61186438e-02 6.39099861e-03 2.52193898e-01 1.02119677e-01
      2.25950032e-01 2.06955507e-01 2.52193898e-01 2.05392793e-01
      5.84282447e-04 4.40987386e-03 1.57596986e-03 2.95613468e-01
      7.95543790e-02 1.11457728e-01 1.57848939e-01 2.58749485e-01
      2.27902412e-01 1.28123560e-04 3.83393344e-04 6.42257146e-05
      2.95613468e-01 4.74159122e-02 6.08043373e-02 1.39441326e-01
      2.36012861e-01 2.95613468e-01 6.29688555e-04 7.97322299e-03
      5.27573004e-03 2.95613468e-01 1.25406519e-01 1.75354525e-01
      1.66413054e-01 2.95613468e-01 2.24716112e-01 3.83991079e-04
      1.14904752e-03 9.63385683e-04 2.95613468e-01 3.93561497e-02
      4.51157987e-02 6.33824170e-02 2.33454213e-01 3.49609226e-01 0. 0.
      0. 3.49609226e-01 0. 9.44106095e-03 1.95512548e-01 3.49609226e-01
      4.20896262e-02 1.12453960e-02 2.71883933e-03 5.34305722e-03
      3.49609226e-01 0. 0. 0. 3.23481709e-02 3.49609226e-01 0. 0. 0.
      3.49609226e-01 0. 4.29139100e-03 8.88693407e-02 3.49609226e-01
      3.49958763e-02 5.63027058e-03 3.63238179e-03 4.15571081e-03
      2.99146652e-01 0. 0. 0. 3.05679422e-02 1.85839921e-01
      2.86498182e-02 1.02165877e-03 6.03337996e-02 2.18363851e-01
      7.50466279e-05 0. 0. 8.36141184e-02 3.42789173e-01 7.13162869e-02
      6.49518147e-02 1.37278587e-01 3.42789173e-01 1.65102567e-04 0. 0.
      1.99850693e-01 2.01649234e-01 1.33513389e-02 1.55525422e-03
      4.88601550e-02 3.42789173e-01 1.12569937e-03 0. 0. 1.50482520e-01
      3.42789173e-01 1.00521661e-01 1.85519844e-01 1.39213607e-01
      3.42789173e-01 2.47653876e-03 0. 0. 3.42789173e-01 1.39173374e-01
      4.34554853e-02 8.44484717e-02 3.39736231e-02 1.66331530e-01
      1.37028331e-03 1.52637804e-04 0. 8.75345916e-02 1.90095633e-01
      3.83087099e-02 2.38209903e-01 1.64320722e-01 2.60578573e-01
      4.92716059e-02 1.21638879e-01 5.95263131e-02 2.60578573e-01
      2.60578573e-01 1.43482566e-01 2.51469880e-01 8.78463387e-02
      2.60578573e-01 1.72932365e-03 1.96248584e-04 0. 2.60578573e-01
      2.60578573e-01 2.60578573e-01 2.60578573e-01 1.27728149e-01
      2.60578573e-01 2.30949000e-03 6.41532317e-02 3.24396938e-02
      2.57416278e-01</_>
    <_>
      4.93422836e-01 4.93422836e-01 4.93422836e-01 0. 4.17833298e-01 0.
      0. 0. 1.98333383e-01 4.17409465e-02 2.62031518e-02 2.69370638e-02
      0. 2.16154754e-01 0. 0. 0. 1.03664654e-03 2.45407727e-02
      3.12702637e-03 0. 0. 0. 0. 0. 0. 1.04770735e-02 0. 0. 0. 0.
      1.23496531e-02 0. 0. 0. 0. 1.11592747e-02 2.98804417e-02
      2.36510076e-02 5.25028259e-02 4.18795317e-01 1.79411039e-01
      1.87670179e-02 0. 4.98072943e-03 3.66484784e-02 1.01982817e-01
      7.02242181e-02 8.08760598e-02 4.18795317e-01 3.02347660e-01
      4.12874334e-02 0. 2.28276979e-02 0. 1.91268282e-05 5.72347672e-05
      1.86948087e-02 4.18795317e-01 1.43238515e-01 6.19533211e-02 0. 0.
      0. 8.28829288e-05 2.48017343e-04 3.86661179e-02 4.18795317e-01
      3.09397578e-01 1.36297300e-01 0. 0. 2.03899201e-02 4.12076376e-02
      2.29186434e-02 2.09235623e-02 3.50367099e-01 8.01189244e-02
      5.56080341e-02 1.61980111e-02 1.74501669e-02 6.75798208e-03
      1.01518279e-04 1.67682738e-04 7.16566965e-02 4.23153847e-01
      2.99500734e-01 3.22904199e-01 5.13032414e-02 7.63047673e-03
      3.84412910e-04 4.20255732e-04 6.32174779e-04 1.46686397e-02
      4.23153847e-01 8.71826708e-02 3.57570648e-02 4.02671256e-04
      6.34237658e-04 1.50124589e-03 1.77102129e-03 2.15498940e-03
      5.73874079e-02 4.23153847e-01 3.21480513e-01 7.13029727e-02
      2.26570410e-03 2.58382014e-03 2.16393429e-03 1.53577887e-04
      3.45834560e-04 7.31021538e-02 5.37724435e-01 3.26587170e-01
      2.88654387e-01 2.88695265e-02 2.47633294e-03 4.36774036e-03
      9.29904199e-05 2.78261723e-04 0. 7.80052766e-02 1.84180995e-03
      1.12223811e-02 3.75032285e-03 7.34165683e-03 1.60686090e-03
      1.93834677e-03 3.66393570e-03 5.88218793e-02 5.37724435e-01
      4.35391366e-01 9.67552513e-02 2.24967301e-03 2.30327668e-03
      3.83993611e-04 4.34980262e-04 1.30162190e-03 4.04381892e-04
      1.05543599e-01 1.69549976e-02 4.24371427e-03 2.57112028e-04
      3.83993611e-04 6.96079955e-02 2.44327966e-04 1.01635256e-03
      5.83437330e-04 1.00330479e-01 0. 2.78096557e-01 2.74144083e-01
      1.66713312e-01 4.42490727e-01 1.50362973e-03 2.01486796e-03
      6.72613876e-03 7.83591345e-02 0. 4.42490727e-01 4.42490727e-01
      4.42490727e-01 8.40818451e-04 0. 1.90155260e-05 3.88958215e-05
      3.06556001e-04 0. 2.92228033e-05 9.76574665e-06 7.98518362e-04
      5.46173416e-02 5.65158320e-04 8.24006129e-05 1.13729713e-03
      1.51038507e-03 0. 4.39252481e-02 5.14908619e-02 5.85495457e-02 0.
      0. 0. 0. 0. 0. 0. 0. 0. 0. 0. 0. 0. 3.50356009e-03 0. 0. 0. 0.
      4.71128374e-01 1.52775690e-01 7.60599300e-02 0. 0. 0. 0.
      2.37165298e-02 4.71128374e-01 4.71128374e-01 2.48154536e-01
      1.26959085e-01 0. 4.11528489e-03 0. 0. 5.47304563e-03
      4.71128374e-01 0. 1.05789462e-04 3.16562393e-04 1.43634034e-02
      4.01475340e-01 1.08568802e-01 3.61617096e-02 0. 0. 0.
      1.36015020e-04 4.07008803e-04 3.41475159e-02 4.01475340e-01
      2.52610981e-01 8.06051940e-02 0. 0. 2.46913120e-01 8.21847543e-02
      6.96167946e-02 2.89807506e-02 4.01475340e-01 9.85212997e-02
      1.28699495e-02 1.98604219e-04 1.72740623e-01 1.43909842e-01
      6.30463213e-02 8.39642361e-02 1.07922189e-01 4.01475340e-01
      3.10108632e-01 4.35119309e-02 2.55348277e-04 1.09185122e-01
      4.24406287e-04 4.14059148e-04 7.48165359e-04 1.17727965e-02
      3.90654176e-01 8.18584859e-02 2.39856876e-02 3.60767182e-04
      5.58448141e-04 1.49185606e-03 1.65016984e-03 2.62751780e-03
      7.86968619e-02 3.90654176e-01 3.37803066e-01 1.26992330e-01
      1.66553620e-03 2.07270426e-03 1.72785223e-02 1.23089384e-02
      2.38725208e-02 4.84455191e-02 3.90654176e-01 1.26227334e-01
      1.86454486e-02 1.08497305e-04 1.53216468e-02 4.94235568e-02
      3.26848938e-04 7.57538655e-04 1.78263620e-01 3.90654176e-01
      3.90654176e-01 1.76818803e-01 1.97690558e-02 5.84630594e-02
      7.10810185e-04 9.16937890e-04 1.91014691e-03 7.51216933e-02
      3.61781508e-01 3.08719128e-01 1.21047974e-01 7.95578002e-04
      9.13860626e-04 1.33906418e-04 1.94113731e-04 5.80860127e-04
      5.49214846e-03 8.87674764e-02 1.98430475e-02 8.48494843e-03
      1.08064021e-04 1.33906418e-04 2.31874973e-01 5.62479487e-04
      8.29192111e-04 1.70606256e-01 3.61781508e-01 3.61781508e-01
      2.01081648e-01 3.06940116e-02 2.59655118e-01 3.61781508e-01
      3.98269302e-04 3.07277689e-04 1.18792569e-02 1.50218084e-01
      3.13630626e-02 3.66036706e-02 3.56332660e-02 3.61781508e-01 0. 0.
      0. 0. 0. 0. 0. 0. 0. 0. 0. 0. 0. 0. 0. 0. 0. 0. 4.52426016e-01
      1.70700470e-04 0. 0. 1.63499310e-04 0. 9.16572362e-02
      3.14584315e-01 4.52426016e-01 4.52426016e-01 0. 0. 0. 0. 0.
      1.30579680e-01 2.28709787e-01 4.52426016e-01 3.02667886e-01
      8.60224217e-02 5.83953559e-02 4.57238732e-03 2.99361767e-03
      2.05748976e-04 7.98860929e-05 1.24952644e-02 3.02667886e-01
      3.02667886e-01 9.32441577e-02 5.43328822e-02 7.08808471e-03
      1.59264579e-02 2.63036898e-04 2.22846458e-04 2.91171600e-03
      3.02667886e-01 3.02667886e-01 1.15621686e-01 1.55388400e-01
      6.19995371e-02 6.87373281e-02 2.85293022e-03 4.67822701e-03
      1.06594805e-02 2.57272929e-01 3.02667886e-01 2.65038550e-01
      3.02667886e-01 1.29903540e-01 2.03998655e-01 5.78681123e-04
      6.91333786e-04 2.37665954e-03 3.02667886e-01 2.83671439e-01
      1.76640272e-01 1.40609920e-01 3.62356044e-02 1.67311043e-01
      3.35657708e-02 4.42446070e-03 2.68138829e-04 2.83671439e-01
      2.83671439e-01 1.08229332e-01 1.30038276e-01 1.07178412e-01
      2.83671439e-01 1.24518424e-01 1.72667783e-02 6.07019232e-04
      2.18712941e-01 2.83671439e-01 2.05610082e-01 2.05206677e-01
      8.17198083e-02 2.83671439e-01 1.05105748e-03 2.67586060e-04
      3.66104912e-04 2.83671439e-01 2.44632930e-01 4.60464358e-02
      3.79420482e-02 3.79151516e-02 2.44817957e-01 2.97617447e-03
      4.36342307e-05 1.39393157e-03 1.81246310e-01 1.28625616e-01
      6.25379309e-02 1.20852873e-01 1.78593412e-01 3.52689445e-01
      2.01726556e-01 2.91948337e-02 8.12036858e-04 1.12153351e-01
      3.43853235e-01 1.17860991e-03 4.61181015e-04 2.02829957e-01
      3.52689445e-01 3.52689445e-01 3.31666440e-01 9.99166518e-02
      3.52689445e-01 9.86903161e-02 1.47814248e-02 2.89352424e-02
      4.27994356e-02 1.50839299e-01 4.82232403e-03 2.78074021e-05
      2.39876471e-03 8.68992805e-02 1.35981426e-01 9.27340705e-04
      3.90547531e-04 3.59802565e-04 7.59312510e-02 6.60695434e-02
      6.48126304e-02 2.34693438e-02 1.48789063e-01 3.15612346e-01
      1.27815129e-03 3.88477900e-04 4.05593850e-02 3.12240899e-01
      1.34384945e-01 1.00891650e-01 3.26284617e-02 3.15612346e-01
      3.15612346e-01 1.37992192e-03 3.28111521e-04 3.64161399e-03
      1.01597033e-01 2.71642935e-02 3.82140875e-02 6.21827096e-02
      3.15612346e-01 1.95722520e-01 1.78571022e-03 7.80650298e-04
      1.49156549e-03 1.52871445e-01 2.28321906e-02 2.15763561e-02
      1.08040739e-02 2.15236098e-01 3.15612346e-01 2.21770699e-03
      4.54065017e-03 7.06900470e-03 3.15612346e-01 1.97161585e-01
      1.75117776e-02 7.97114149e-02 3.15612346e-01 3.09071988e-01
      2.77390034e-04 2.45229370e-04 4.06692910e-04 2.43220441e-02
      2.22195014e-02 4.62783314e-02 1.62149727e-01 3.09071988e-01
      3.09071988e-01 7.20457465e-05 2.15587861e-04 0. 2.15010834e-03
      5.49229700e-03 9.32980925e-02 1.39062077e-01 3.09071988e-01
      3.04586112e-01 6.28099777e-04 3.21122934e-03 4.55536740e-03
      2.21200034e-01 2.64046192e-01 4.06167172e-02 1.69169351e-01
      3.09071988e-01 3.09071988e-01 3.70785431e-03 5.86056430e-03
      8.09058780e-04 5.60762361e-02 7.61991441e-02 8.07588696e-02
      1.15725316e-01 3.09071988e-01 2.50509560e-01 1.10900953e-01
      1.74072012e-01 1.19645856e-01 2.05346569e-01 3.95301171e-02
      8.68582204e-02 2.54820809e-02 2.16957092e-01 2.50509560e-01
      2.50509560e-01 2.50509560e-01 1.64956272e-01 2.50509560e-01
      5.31474128e-03 3.24972207e-03 6.80196972e-05 1.73492447e-01
      2.50509560e-01 1.23583265e-01 2.32934013e-01 1.29216939e-01
      2.50509560e-01 2.07287818e-01 2.50509560e-01 1.05696917e-01
      2.50509560e-01 1.23577930e-01 7.54639134e-02 9.31032747e-02
      5.99346571e-02 1.90437526e-01 3.92000563e-02 5.38980700e-02
      3.59402560e-02 6.20346442e-02 3.01871032e-01 3.01871032e-01
      3.01871032e-01 1.08102262e-01 3.01871032e-01 1.36192335e-04
      1.62705081e-04 4.27764200e-04 3.01871032e-01 3.01871032e-01
      1.68290269e-02 1.31287018e-03 2.86891684e-02 3.01871032e-01 0. 0.
      1.71444647e-03 2.97088355e-01 1.55604750e-01 3.37347835e-02
      3.06803379e-02 7.02762417e-03 2.08345965e-01 1.08199734e-02
      2.20881756e-02 1.35645466e-02 1.34978130e-01 1.93060502e-01
      1.36300968e-03 5.22614500e-05 8.02006666e-03 3.01871032e-01
      1.17357988e-02 2.60574911e-02 1.03646154e-02 1.99739158e-01
      4.04118448e-01 1.10740925e-03 3.31378612e-03 6.07780702e-02
      4.04118448e-01 0. 0. 7.55545544e-03 4.04118448e-01 1.62712652e-02
      1.77464070e-04 5.31038095e-04 5.96008310e-03 2.75533833e-02
      2.17205076e-03 5.03777293e-03 1.32867682e-03 1.62712652e-02
      4.04118448e-01 2.86590587e-03 8.47273623e-05 2.54862681e-02
      4.04118448e-01 1.77402198e-02 3.78168561e-02 7.24481652e-04
      4.04118448e-01 4.52776439e-03 4.43998986e-04 1.32860930e-03
      2.70912866e-03 9.22533795e-02 1.17402186e-03 2.60440656e-03
      8.70349177e-04 4.52776439e-03 1.56844050e-01 1.75823097e-03
      2.80967844e-03 4.56259260e-03 3.15693438e-01 4.75339927e-02
      1.29805319e-03 2.83079669e-02 2.20924482e-01 3.30768555e-01
      3.37092439e-03 3.89487818e-02 3.36963497e-02 3.30768555e-01
      3.30768555e-01 7.54569005e-03 1.39012545e-01 3.30768555e-01
      8.32595676e-02 2.90700570e-02 5.14324149e-03 1.63973663e-02
      1.70043737e-01 2.13028342e-02 6.90616260e-04 2.17349306e-02
      1.14159241e-01 2.73951560e-01 3.81802879e-02 3.63136008e-02
      5.43652661e-02 3.30768555e-01 8.74424949e-02 1.23191590e-03
      5.16037941e-02 3.30768555e-01 1.99745104e-01 1.29380589e-03
      1.94496289e-02 1.72639452e-02 2.60535300e-01 2.60535300e-01
      2.17138454e-02 1.39995635e-01 2.60535300e-01 2.60535300e-01
      1.17213324e-01 7.49037564e-02 3.66545771e-03 2.58286566e-01
      2.00992376e-01 9.65848044e-02 4.99366894e-02 2.25440830e-01
      8.69348794e-02 5.37182344e-03 1.58015490e-02 2.02233493e-02
      1.72622889e-01 3.65104452e-02 1.78063149e-03 1.61513798e-02
      1.09693617e-01 2.60535300e-01 1.39851004e-01 2.60535300e-01
      5.03029861e-02 2.60535300e-01 2.60535300e-01 2.57502913e-01
      1.39670879e-01 2.12188587e-01 2.50268668e-01 1.34960636e-01
      2.50268668e-01 3.83868515e-02 2.50268668e-01 1.81942433e-01
      2.29660094e-01 8.15177038e-02 1.84754044e-01 1.00837670e-01
      2.37833299e-02 3.88245545e-02 1.41770886e-02 2.36384869e-01
      4.67336029e-02 8.15824792e-02 9.67365652e-02 9.12724435e-02
      1.47227705e-01 5.95578142e-02 1.43526524e-01 4.96121496e-03
      2.50268668e-01 2.50268668e-01 2.50268668e-01 1.36565268e-01
      2.06306517e-01 2.50268668e-01 7.02506723e-03 1.34726996e-02
      4.12102882e-03 2.50268668e-01 1.08311176e-01 1.82290584e-01
      2.00892583e-01 2.50268668e-01 1.85972959e-01 6.85641135e-04
      1.28772837e-04 3.31957708e-03 2.88323611e-01 4.62588742e-02
      9.16318223e-02 1.36392400e-01 2.09091440e-01 2.35271245e-01
      1.41373614e-03 0. 1.48341269e-03 2.88323611e-01 3.04869451e-02
      6.25156760e-02 4.25777137e-02 2.75029361e-01 2.88323611e-01
      2.68538017e-04 3.59814556e-04 7.35349301e-03 2.88323611e-01
      1.04728922e-01 1.65087909e-01 2.40107268e-01 2.88323611e-01
      2.66564071e-01 3.26246809e-04 0. 1.06486725e-03 2.88323611e-01
      2.09213998e-02 3.36755402e-02 4.09198478e-02 2.88096786e-01
      3.82698148e-01 3.19779990e-03 0. 0. 3.82698148e-01 3.91611904e-02
      7.15443417e-02 1.08726742e-03 3.82698148e-01 7.42474396e-04
      5.00360911e-04 1.49726507e-03 0. 2.60619283e-01 3.59643367e-03
      1.48117542e-03 4.94984095e-04 7.42474396e-04 3.82698148e-01
      7.37953815e-04 0. 0. 3.82698148e-01 2.28935033e-02 3.35717909e-02
      8.45652423e-04 3.82698148e-01 5.57712454e-04 1.15467905e-04
      3.45522683e-04 0. 2.02886507e-01 2.79722642e-03 6.73261588e-04
      2.24992764e-04 5.57712454e-04 1.55014887e-01 8.95245820e-02
      1.50289573e-02 7.20751584e-02 2.52393454e-01 2.75468547e-03
      1.19735452e-03 2.66848918e-04 1.08231343e-01 3.15181822e-01
      2.00985461e-01 9.87948254e-02 1.63045049e-01 3.15181822e-01
      6.97663007e-03 1.12506682e-02 6.70960697e-04 3.15181822e-01
      1.17327094e-01 4.06326279e-02 1.12476507e-02 5.56403734e-02
      1.92228660e-01 2.14253296e-03 6.73171366e-04 1.21294965e-04
      9.56814438e-02 3.15181822e-01 2.68734515e-01 2.34270200e-01
      1.36402056e-01 3.15181822e-01 1.17120780e-02 2.03293003e-02
      2.42025169e-04 3.15181822e-01 1.63166255e-01 9.83542427e-02
      1.05632551e-01 4.81981300e-02 1.89375356e-01 1.25215892e-02
      2.10547093e-02 1.16588979e-03 8.93202648e-02 1.41971231e-01
      4.78451364e-02 1.55988351e-01 6.43216968e-02 2.63151109e-01
      1.35394365e-01 1.16618276e-01 1.80644602e-01 1.39379755e-01
      2.63151109e-01 2.63151109e-01 2.63151109e-01 8.37723240e-02
      2.63151109e-01 2.22468022e-02 4.37992401e-02 7.21062883e-04
      2.63151109e-01 2.63151109e-01 2.63151109e-01 2.63151109e-01
      8.42473432e-02 2.31636778e-01 2.29260027e-02 4.94133569e-02
      5.10600358e-02 2.63151109e-01</_>
    <_>
      4.78153437e-01 4.78153437e-01 4.78153437e-01 6.58893958e-04
      1.00627579e-01 0. 6.59009034e-04 2.20229267e-04 2.83768505e-01
      1.85494199e-01 2.80418366e-01 2.57946342e-01 1.44956668e-03
      1.37219921e-01 0. 0. 0. 6.67163655e-02 4.29644361e-02
      8.40891749e-02 7.00156540e-02 0. 9.02591099e-04 0. 0. 0.
      4.47127670e-02 2.71828903e-04 0. 0. 0. 1.14814524e-04 0. 0. 0.
      3.17036058e-04 2.68448098e-03 6.57934742e-03 3.66463850e-04
      3.96525225e-04 1.51106464e-02 0. 1.21937206e-04 2.00925249e-04
      1.98763888e-03 7.11808493e-03 4.77939174e-02 1.98157966e-01
      3.44664872e-01 4.66174185e-01 5.66096306e-02 1.82905805e-03
      3.01387860e-03 4.26297588e-03 0. 1.55578091e-05 5.73181569e-05
      8.54852260e-04 2.97633540e-02 2.79053871e-04 1.48922452e-04
      6.04456582e-05 0. 3.85628337e-05 2.87114712e-03 3.31327617e-01
      4.66174185e-01 4.66174185e-01 2.62243539e-01 5.41542051e-03
      9.06684960e-04 3.46770212e-05 2.67441068e-02 5.39733879e-02
      1.98683783e-01 3.17909360e-01 3.87706697e-01 4.66637686e-02
      6.90662302e-04 1.15581532e-03 2.07323898e-02 2.65137292e-02
      1.59276407e-02 6.30205199e-02 1.09755412e-01 3.87706697e-01
      1.34322364e-02 1.52771231e-02 2.96269567e-03 2.18973942e-02
      9.21946557e-05 2.82871258e-03 2.13425577e-01 3.64059597e-01
      3.87706697e-01 1.68912753e-01 2.82425503e-03 3.42369167e-04
      8.13526567e-05 7.84812088e-04 2.01046886e-03 6.91963062e-02
      1.29069895e-01 3.87706697e-01 4.59633395e-02 3.42036627e-04
      1.49476982e-03 8.75018653e-04 3.00815259e-03 1.50406166e-04
      8.35599005e-02 2.21211642e-01 3.94922823e-01 2.12818421e-02
      7.28864074e-02 9.74643137e-03 3.01223202e-03 1.52078038e-03
      4.07276457e-06 7.83817843e-02 1.95245177e-01 3.94922823e-01
      1.68526843e-02 6.29607514e-02 7.37289991e-03 1.52535457e-03
      1.81453221e-03 1.72490103e-03 1.90142438e-01 3.35447103e-01
      3.94922823e-01 1.29166573e-01 4.70078347e-04 1.39759330e-03
      1.90326024e-03 2.71742162e-03 4.28604573e-04 1.38534978e-01
      2.58986205e-01 3.94922823e-01 1.00872815e-01 7.27454782e-04
      3.08724790e-04 2.72333645e-03 1.70789957e-02 0. 4.26021516e-02
      7.58565962e-02 3.88608187e-01 5.87493600e-03 4.74911965e-02
      1.02130324e-02 1.86774619e-02 3.58694106e-01 1.33330686e-04
      3.98976234e-04 0. 3.18566442e-01 4.14252328e-03 3.88608187e-01
      3.88608187e-01 3.88608187e-01 6.20344607e-03 0. 9.31482005e-04
      7.20386207e-03 3.88608187e-01 4.78934683e-03 2.18095421e-03
      7.28838495e-04 6.20344607e-03 7.43380515e-03 0. 0. 0.
      4.67515551e-04 2.76168226e-04 0. 0. 7.43380515e-03 0. 0. 0. 0. 0.
      0. 0. 0. 0. 8.92686585e-05 0. 0. 0. 0. 0. 0. 0. 8.92686585e-05
      4.81975377e-01 2.02350900e-01 1.54158652e-01 0. 0. 0.
      2.44539784e-04 2.55763214e-02 4.81975377e-01 4.81975377e-01
      2.04495024e-02 6.97316835e-03 0. 3.52205220e-03 7.45809230e-04
      1.00546295e-03 1.18026165e-02 4.81975377e-01 1.00290330e-04 0.
      1.73661814e-04 2.05053459e-03 3.90910730e-02 2.90949160e-04
      1.90770970e-05 6.37523090e-06 1.00290330e-04 2.44469964e-04
      6.96734496e-05 2.05330953e-01 2.54696429e-01 3.59630555e-01
      1.30691737e-01 2.14527664e-03 9.56284639e-05 2.35828833e-04
      3.59630555e-01 4.81763482e-02 2.82700025e-02 1.93279013e-02
      4.33736928e-02 1.06870173e-03 4.08554595e-04 2.79363576e-05
      3.31322223e-01 2.92273670e-01 1.51946828e-01 3.59630555e-01
      3.23201269e-01 3.59630555e-01 2.15893444e-02 2.71649857e-04 0.
      1.57588422e-01 3.18931649e-04 1.37645562e-04 2.44874835e-01
      2.94260085e-01 3.91557306e-01 1.57220215e-01 2.43566348e-03
      6.95004419e-05 3.01860418e-04 3.36554222e-04 1.39343552e-02
      1.34566814e-01 8.83945748e-02 3.91557306e-01 4.20242622e-02
      3.33785778e-04 1.28493842e-03 4.44254634e-04 4.99250889e-02
      6.34753704e-02 2.77345687e-01 2.80030161e-01 3.91557306e-01
      2.35320814e-02 1.48512787e-04 0. 2.51196045e-02 2.31939517e-02
      1.65608823e-02 1.07359871e-01 7.26787075e-02 3.91557306e-01
      3.10792401e-02 3.52202021e-02 1.23341568e-02 2.52149589e-02
      9.94226080e-04 2.81456262e-02 2.68264145e-01 2.24679634e-01
      3.59867305e-01 9.23175737e-02 1.90100560e-04 1.00292359e-03
      1.08046446e-03 1.82604394e-03 1.25571489e-02 1.38625816e-01
      1.69292837e-01 3.59867305e-01 6.56865835e-02 1.51476561e-04
      1.11014953e-04 1.83179334e-03 1.29209712e-01 3.38002555e-02
      2.15846092e-01 1.38161555e-01 3.59867305e-01 5.78270368e-02
      7.28135258e-02 5.55958413e-02 1.46279961e-01 2.30248764e-01
      1.53274415e-02 9.88785848e-02 7.22450390e-02 3.59867305e-01
      2.57995427e-02 3.40476260e-02 1.76367983e-01 2.76476860e-01
      2.69589992e-03 0. 0. 2.30699638e-03 8.09981227e-02 1.01050641e-03
      2.94566824e-04 9.84393118e-05 2.69589992e-03 0. 0. 0. 0. 0. 0. 0.
      0. 0. 4.20804888e-01 4.28102539e-05 2.25200463e-04 8.98899336e-04
      3.88744031e-03 1.69469730e-03 5.61009385e-02 4.20804888e-01
      4.20804888e-01 4.20804888e-01 0. 0. 0. 0. 0. 1.87789515e-01
      2.55734086e-01 4.20804888e-01 3.16392511e-01 1.23680525e-01
      1.17038406e-01 6.59615733e-03 6.41476130e-03 0. 2.33775543e-04
      1.48607176e-02 3.16392511e-01 3.16392511e-01 2.71629151e-02
      6.07288852e-02 1.18203266e-02 3.60842608e-02 1.59087373e-04
      6.90415327e-04 6.92409510e-03 3.16392511e-01 2.94070154e-01
      7.40581676e-02 1.37317225e-01 3.97409536e-02 9.60178450e-02
      1.99384941e-03 5.75587200e-03 1.26300333e-02 2.18671933e-01
      3.16392511e-01 1.54498652e-01 3.16392511e-01 7.63473213e-02
      2.48081535e-01 2.51625665e-03 8.55948951e-04 3.43102799e-03
      3.16392511e-01 2.96578526e-01 7.04979077e-02 4.76733819e-02
      1.61901861e-02 6.88371137e-02 9.73267306e-04 5.26986842e-04
      9.43095074e-05 2.96578526e-01 2.96578526e-01 1.81047678e-01
      2.52966613e-01 1.20232932e-01 2.79352427e-01 2.66748201e-03
      1.17141310e-04 1.96453880e-06 2.66741931e-01 2.96578526e-01
      1.46838099e-01 1.84308514e-01 3.20200659e-02 2.96578526e-01
      1.59233809e-03 8.09697318e-04 5.56134211e-04 2.96578526e-01
      2.38053933e-01 4.82724756e-02 3.15169469e-02 1.61730107e-02
      2.12921679e-01 1.14860968e-03 1.92476306e-04 1.94116525e-04
      1.85646534e-01 2.18099490e-01 1.69159427e-01 3.06534857e-01
      1.99168772e-01 3.06534857e-01 4.36279597e-03 7.37646478e-05
      2.46509135e-05 1.48241401e-01 1.53724104e-01 4.08250839e-03
      1.36496630e-02 6.37733340e-02 3.06534857e-01 2.39469483e-02
      1.01109497e-01 3.47708352e-02 1.65262371e-01 2.80477136e-01
      3.59831415e-02 4.83325832e-02 1.42156184e-02 3.06534857e-01
      2.07873294e-03 1.10646989e-03 3.69763729e-04 2.62861669e-01
      2.89069980e-01 1.13927224e-03 3.00195534e-03 3.68351978e-03
      3.06534857e-01 5.95316850e-03 2.49251537e-02 8.55612289e-03
      2.93492705e-01 2.63481200e-01 4.12889104e-03 1.49677759e-02
      6.46426529e-02 2.91937679e-01 2.25401856e-02 1.14105746e-01
      1.17653474e-01 2.91937679e-01 2.91937679e-01 2.09686579e-03
      7.29466137e-03 2.83373725e-02 1.85500801e-01 1.14706783e-02
      6.26083091e-02 2.91937679e-01 2.91937679e-01 1.28645897e-01
      5.20089525e-04 9.64318286e-04 1.48088322e-03 1.08291902e-01
      1.17294006e-02 2.80122776e-02 4.76430766e-02 1.52516201e-01
      2.91937679e-01 5.26778866e-04 1.06610742e-03 1.20331310e-02
      2.91937679e-01 4.28242646e-02 1.81066990e-01 2.91937679e-01
      2.91937679e-01 2.81628996e-01 7.27750667e-05 1.73688255e-04
      1.26983170e-04 1.15672322e-02 2.17083353e-03 4.47547436e-02
      2.20260262e-01 2.81628996e-01 2.81628996e-01 0. 0. 4.58579825e-06
      1.23708718e-03 1.31051615e-03 1.36076003e-01 1.52708113e-01
      2.81628996e-01 2.81628996e-01 1.25631588e-04 3.21418571e-04
      2.24017724e-02 2.39591509e-01 5.77344485e-02 2.81628996e-01
      2.51359254e-01 2.81628996e-01 2.81628996e-01 0. 1.90846471e-03
      1.10072056e-02 6.42650202e-02 3.17930989e-02 2.03092009e-01
      1.41149253e-01 2.81628996e-01 2.49101445e-01 5.91927655e-02
      2.58199513e-01 9.18015540e-02 2.61624902e-01 3.33935469e-02
      5.18620759e-02 9.58738774e-02 2.22190231e-01 2.61624902e-01
      1.57151267e-01 2.61624902e-01 6.86188787e-02 2.61624902e-01
      5.28548006e-03 1.64162600e-03 8.35357816e-04 2.61624902e-01
      2.61624902e-01 9.73930210e-02 2.61624902e-01 1.11146681e-01
      2.61624902e-01 1.88103855e-01 1.94435239e-01 1.50898620e-01
      2.61624902e-01 6.10762052e-02 5.50055970e-03 3.64639908e-02
      2.80187326e-03 1.42949864e-01 8.90355185e-03 3.72249559e-02
      2.54602209e-02 5.88410310e-02 3.05526227e-01 2.63356179e-01
      3.02403629e-01 8.47078711e-02 3.05526227e-01 5.17697353e-03
      2.32538371e-03 2.33870954e-03 3.05526227e-01 3.05526227e-01
      2.54767966e-02 4.67834249e-03 6.58468530e-02 3.05526227e-01
      1.54594518e-03 5.19906927e-04 8.83564935e-04 3.05526227e-01
      1.86219200e-01 4.50498750e-03 1.38987310e-03 2.31794529e-02
      2.71832705e-01 2.88664848e-02 1.38200462e-01 1.30092382e-01
      1.66204169e-01 1.29797161e-01 3.22113745e-03 2.34944353e-04
      2.87881494e-02 2.21108630e-01 6.97026914e-03 6.91671968e-02
      6.77587166e-02 1.19296096e-01 3.92113626e-01 6.43684354e-04
      1.92614517e-03 3.68552543e-02 3.92113626e-01 3.12416907e-03
      2.96372944e-03 9.90428729e-04 3.92113626e-01 3.92113626e-01
      6.59694197e-03 1.16817476e-02 3.82801541e-03 3.92113626e-01
      8.54218379e-03 9.12089460e-03 3.04804835e-03 3.92113626e-01
      5.97788207e-02 0. 0. 1.45152360e-02 1.50144219e-01 0. 0. 0.
      6.11394607e-02 7.85227194e-02 3.10288044e-03 3.01704416e-03
      1.85852766e-03 1.46805301e-01 1.14861038e-03 3.72059201e-03
      1.24335906e-03 1.18322484e-01 1.68054685e-01 3.51626263e-03
      3.51698091e-03 1.80895580e-03 3.12151581e-01 1.05192743e-01
      4.56921803e-03 2.31970921e-02 2.88986027e-01 3.12151581e-01
      1.45556580e-03 1.17150845e-03 4.01263274e-02 3.12151581e-01
      2.06501037e-01 3.12151581e-01 3.12151581e-01 3.12151581e-01
      1.13697357e-01 2.28164252e-03 1.37920224e-03 3.02246772e-03
      2.12121233e-01 6.57421350e-02 1.53161911e-03 1.03615848e-02
      1.92231923e-01 1.27632737e-01 9.16096382e-04 2.64790375e-04
      6.06134487e-03 2.35071674e-01 8.61938149e-02 1.20067243e-02
      5.33333011e-02 2.51509637e-01 1.05773762e-01 5.11462195e-03
      9.31258022e-04 3.54595780e-02 2.58837461e-01 8.87102485e-02
      2.58837461e-01 2.07086399e-01 2.58837461e-01 2.58837461e-01
      1.29133686e-01 6.13124818e-02 3.00180633e-02 2.22817540e-01
      9.99559164e-02 9.64669883e-02 2.98603289e-02 2.58837461e-01
      2.98567656e-02 1.74901113e-02 4.19178568e-02 5.37249409e-02
      1.49874106e-01 5.90886921e-02 9.96573735e-03 1.68647282e-02
      7.68821165e-02 2.58837461e-01 2.58837461e-01 2.58837461e-01
      2.32298449e-01 2.58837461e-01 2.58837461e-01 9.24042463e-02
      7.38851652e-02 2.58837461e-01 2.28973672e-01 6.62183911e-02
      6.02655523e-02 2.00756080e-02 2.57397473e-01 1.09520972e-01
      1.05532683e-01 8.19427818e-02 2.38091290e-01 1.05847277e-01
      5.35388070e-04 4.38807951e-03 1.32938055e-03 2.50920802e-01
      8.71948749e-02 1.21131368e-01 1.40757456e-01 1.44146577e-01
      2.57397473e-01 1.74906068e-02 6.88200118e-03 4.19110147e-04
      2.35550076e-01 9.26588252e-02 2.57397473e-01 2.25676402e-01
      2.57397473e-01 2.57397473e-01 1.16885558e-03 9.69866116e-04
      1.55409460e-03 2.57397473e-01 1.55983344e-01 2.08028823e-01
      2.57397473e-01 2.57397473e-01 2.47363403e-01 1.31515073e-04
      3.38463782e-04 3.66291124e-03 2.81840026e-01 1.06200300e-01
      2.81840026e-01 2.81840026e-01 2.58966148e-01 1.04756922e-01 0. 0.
      1.37573655e-03 2.50910848e-01 1.65326782e-02 1.85227692e-01
      1.25422224e-01 1.08790614e-01 2.81840026e-01 6.28833135e-04
      1.05553214e-03 4.55719046e-03 2.81840026e-01 1.19125843e-01
      2.81840026e-01 2.30904445e-01 2.81840026e-01 1.18737407e-01
      1.38210289e-05 4.13576308e-05 8.18150234e-04 2.36911774e-01
      8.10708664e-03 1.03638873e-01 4.68313433e-02 1.21513560e-01
      4.40393984e-02 0. 0. 0. 2.22571537e-01 0. 0. 0. 4.98862192e-02
      3.86826485e-01 0. 0. 4.35121581e-02 3.86826485e-01 5.40102134e-03
      4.36857250e-03 5.77502069e-04 3.86826485e-01 4.36328985e-02 0. 0.
      0. 1.89534709e-01 0. 0. 0. 4.62905467e-02 3.86826485e-01 0. 0.
      4.81197610e-02 3.86826485e-01 6.94417069e-03 9.04218480e-03
      1.88722962e-03 3.86826485e-01 1.43528908e-01 3.08837788e-03
      3.21583916e-03 8.69959034e-03 2.07450047e-01 7.69156381e-04
      9.13228956e-04 1.79523355e-04 1.18537433e-01 1.89218804e-01
      2.59671137e-02 5.77703416e-02 1.36925234e-02 1.75829530e-01
      6.91902009e-04 9.42257233e-04 1.25958538e-03 1.38716474e-01
      3.36710662e-01 1.33404424e-02 1.38080390e-02 2.05957089e-02
      3.36710662e-01 9.88915330e-04 2.09861062e-03 9.38086305e-04
      3.12991530e-01 3.36710662e-01 1.56062484e-01 3.36710662e-01
      1.59079522e-01 3.36710662e-01 2.45729717e-03 1.73041469e-03
      3.03340820e-03 3.36710662e-01 5.44421338e-02 1.67505778e-02
      5.84596358e-02 6.28996268e-02 1.26934722e-01 1.98728908e-02
      8.62516649e-03 5.98542951e-03 6.50133491e-02 1.02841012e-01
      7.02722818e-02 2.17985228e-01 2.65847266e-01 2.65847266e-01
      1.80674180e-01 2.49007002e-01 1.88830435e-01 2.39235222e-01
      2.65847266e-01 1.14328496e-01 2.27871045e-01 7.08954483e-02
      2.29490370e-01 2.31262506e-03 4.15672408e-03 4.54372540e-03
      2.46671185e-01 1.59385934e-01 1.46225870e-01 2.65847266e-01
      2.65847266e-01 2.65847266e-01 8.49196091e-02 1.44482344e-01
      1.03327617e-01 1.48777962e-01</_>
    <_>
      0. 0. 0. 0. 0. 0. 0. 0. 0. 8.95129070e-02 0. 0. 1.83706991e-02
      6.99968636e-01 6.99968636e-01 0. 0. 6.87995553e-02 0. 0. 0. 0. 0.
      0. 0. 0. 0. 2.64249416e-03 0. 0. 0. 1.69122720e-03 0. 0. 0.
      2.64249416e-03 1.29462868e-01 2.37047840e-02 4.54238579e-02
      1.83674973e-02 8.27108771e-02 3.06921136e-02 7.19529539e-02
      6.55073225e-02 1.33193418e-01 3.63538831e-01 1.77311465e-01
      3.63538831e-01 2.57481843e-01 3.63538831e-01 3.42705697e-02
      1.30364269e-01 1.40047386e-01 3.63538831e-01 5.45361871e-03 0.
      1.72973785e-04 1.82544545e-03 2.27402858e-02 2.22915391e-04 0. 0.
      5.39604155e-03 3.08419317e-02 3.20974388e-03 1.01026721e-01
      3.63538831e-01 3.63538831e-01 3.11053675e-02 0. 0. 2.13558748e-02
      3.22368205e-01 1.77683309e-01 3.22368205e-01 2.29690522e-01
      3.22368205e-01 2.45195460e-02 5.29960357e-02 5.16174808e-02
      2.13322684e-01 1.96367621e-01 8.96214917e-02 2.04024434e-01
      9.52936187e-02 3.22368205e-01 3.24826986e-02 1.21155404e-01
      4.97036800e-02 7.99064785e-02 3.30884010e-02 7.80416327e-03
      9.01799649e-02 3.22368205e-01 3.22368205e-01 2.17636675e-02 0. 0.
      1.24321189e-02 1.63262691e-02 6.95765764e-03 5.39063700e-02
      6.25714362e-02 3.11549723e-01 3.48802544e-02 8.97430349e-03
      2.30935984e-03 5.91845857e-03 1.69853382e-02 3.87843861e-03
      9.72109213e-02 1.06085822e-01 3.86086047e-01 6.09023832e-02
      3.80074263e-01 1.00579716e-01 3.01476493e-02 1.43538919e-05
      1.18934713e-05 4.90024686e-02 7.05983341e-02 3.86086047e-01
      3.86336632e-02 2.25936338e-01 7.20449612e-02 1.21521149e-02
      1.14787614e-03 1.15827322e-02 2.00813591e-01 1.45562112e-01
      3.86086047e-01 1.79050803e-01 4.09142114e-02 1.08864140e-02
      6.40740618e-03 1.32497473e-04 8.99842195e-03 1.56157315e-01
      1.15761846e-01 3.86086047e-01 1.41765639e-01 2.91914642e-02
      7.98462518e-03 2.93351919e-03 0. 0. 0. 1.41845308e-02
      7.02950180e-01 3.19987051e-02 2.07906053e-03 6.94787246e-04 0. 0.
      0. 0. 0. 0. 0. 0. 0. 0. 6.41570485e-04 0. 0. 4.38321345e-02
      7.02950180e-01 3.91588360e-02 4.19922825e-03 1.40331197e-03
      6.41570485e-04 0. 0. 0. 0. 0. 0. 0. 0. 0. 0. 0. 0. 0. 0. 0. 0. 0.
      0. 0. 0. 0. 0. 0. 0. 0. 0. 0. 7.12263957e-02 0. 0. 0. 0. 0. 0. 0.
      7.12263957e-02 7.01019168e-01 0. 0. 0. 0. 0. 0. 0. 7.01019168e-01
      0. 0. 1.51906780e-03 9.43331514e-03 5.19650318e-02 3.46603058e-03
      8.92305034e-05 2.98192681e-05 0. 1.42697318e-05 0. 1.06445782e-01
      4.60257441e-01 4.60257441e-01 1.39616594e-01 3.86665575e-04
      1.29216831e-04 1.42697318e-05 5.43295778e-02 8.14400893e-03
      1.46884825e-02 3.30934078e-02 1.18296362e-01 9.90806520e-03
      1.96307112e-04 6.56023840e-05 5.22975586e-02 5.18121496e-02
      3.56855616e-02 2.25966886e-01 4.60257441e-01 4.60257441e-01
      1.90170959e-01 8.50664219e-04 2.84277048e-04 4.56794389e-02
      3.76830503e-05 0. 9.49695930e-02 3.91812712e-01 3.91812712e-01
      1.15761995e-01 1.38190051e-04 4.61806849e-05 3.76830503e-05
      1.71286592e-05 3.41119408e-03 6.34164736e-02 6.65786564e-02
      3.91812712e-01 5.07227741e-02 0. 0. 1.71286592e-05 7.76415225e-03
      1.29961064e-02 1.35303319e-01 3.91812712e-01 3.91812712e-01
      1.29029691e-01 3.04018089e-04 1.01597507e-04 5.63750649e-03
      1.08847104e-04 2.52986007e-04 1.71220675e-02 7.39615634e-02
      3.91812712e-01 2.32627820e-02 1.49866892e-03 0. 1.03548075e-04
      4.10223322e-04 1.20159984e-02 2.03627691e-01 1.05059005e-01
      4.52521801e-01 1.60409361e-01 2.33497922e-04 2.95371108e-04
      4.55258501e-04 6.21619867e-04 9.36243404e-03 1.58426940e-01
      7.83325136e-02 4.52521801e-01 1.25870362e-01 5.13695355e-04
      6.49816531e-04 7.20697280e-04 4.33129817e-03 9.85250110e-04
      5.94227724e-02 1.63150117e-01 4.52521801e-01 6.68995753e-02
      5.28024696e-03 4.83350130e-04 4.82032169e-03 6.15839288e-03
      8.60969769e-04 4.65009809e-02 1.06708489e-01 4.52521801e-01
      4.98162769e-02 4.12899768e-03 1.06337038e-03 6.87772175e-03
      8.64168629e-03 4.74103086e-04 1.41869171e-03 4.37886603e-02
      6.94243908e-01 4.57145795e-02 9.52189416e-03 1.20450435e-02
      1.04781929e-02 0. 0. 0. 0. 0. 0. 0. 0. 0. 1.00560397e-01
      2.69396021e-03 8.06132611e-03 8.78245046e-04 6.94243908e-01
      4.15280275e-02 6.34792959e-04 1.97107047e-02 1.10237330e-01
      1.09456554e-02 0. 0. 0. 0. 0. 0. 0. 1.09456554e-02 3.42944920e-01
      2.41234340e-02 2.88296714e-02 2.05740089e-05 5.58295171e-04 0. 0.
      0. 3.42944920e-01 3.42944920e-01 7.85131380e-02 0. 0.
      6.72396563e-05 0. 0. 0. 3.41973662e-01 3.42944920e-01
      5.16488850e-02 7.84994811e-02 1.73839019e-03 2.01787055e-02
      2.68706470e-04 2.24426811e-04 7.49996107e-05 3.42944920e-01
      3.42944920e-01 1.00945465e-01 0. 1.89679004e-02 1.70235202e-01
      9.48292902e-04 7.11614033e-04 2.37809130e-04 3.42944920e-01
      3.03856552e-01 1.41769573e-01 9.33191273e-03 1.16382400e-02
      7.18987882e-02 4.96707298e-03 2.50462745e-05 8.37002517e-06
      2.52862990e-01 3.03856552e-01 1.50408104e-01 1.39978692e-01
      1.56487674e-01 3.03856552e-01 7.03699887e-02 1.08533866e-04
      3.62701103e-05 2.19482049e-01 3.03856552e-01 1.71674371e-01
      1.85421796e-03 1.30303884e-02 2.23031148e-01 2.72361981e-03
      2.09005346e-04 6.98459698e-05 3.03856552e-01 3.03856552e-01
      1.46934986e-01 2.78132707e-02 9.53465141e-03 2.55370051e-01
      2.48944629e-02 0. 0. 2.56949365e-01 2.10019082e-01 1.27800882e-01
      2.94256598e-01 3.34798783e-01 4.03755873e-01 1.48342729e-01
      1.38382879e-04 4.62451244e-05 1.63539827e-01 9.47152078e-03
      1.41808254e-04 0. 4.85117398e-02 4.03755873e-01 9.03157815e-02
      1.37016224e-02 5.05596362e-02 1.27178123e-02 2.34339058e-01
      1.03977129e-01 5.84677458e-02 1.77630093e-02 4.03755873e-01
      5.13074584e-02 0. 0. 1.84453011e-01 1.94052607e-02 6.44582979e-05
      0. 4.67314431e-03 2.63353467e-01 6.83757737e-02 1.06568197e-02
      6.50052428e-02 2.55307201e-02 7.13352859e-02 1.47281564e-04
      4.40720847e-04 4.91183698e-02 3.28265369e-01 1.07364483e-01
      2.01396327e-02 1.36360809e-01 1.12748012e-01 3.24026346e-01
      1.89361992e-04 5.66641102e-04 2.93581095e-02 3.28265369e-01
      7.14230463e-02 2.32954416e-02 1.73868254e-01 3.28265369e-01
      1.25724941e-01 4.66599668e-05 1.39623866e-04 4.01315140e-03
      2.49491721e-01 8.04574043e-02 1.56641565e-02 1.75203979e-01
      1.80729285e-01 3.28265369e-01 5.99913801e-05 1.79516399e-04
      1.93855714e-03 2.40058139e-01 5.29253185e-02 2.89720595e-02
      2.36727402e-01 3.28265369e-01 3.03549200e-01 2.63350976e-05
      7.88043544e-05 0. 1.02057750e-03 1.76913731e-04 4.26418073e-02
      1.08249620e-01 3.40429753e-01 2.63905674e-01 0. 0. 0.
      3.27061251e-04 0. 4.79203612e-02 8.52318704e-02 3.23046535e-01
      3.40429753e-01 8.34316870e-06 2.49658460e-05 0. 1.10416271e-01
      9.36935885e-06 9.38119665e-02 2.20914856e-01 3.40429753e-01
      3.40429753e-01 0. 0. 0. 1.58891175e-02 0. 1.28929123e-01
      2.03026325e-01 3.40429753e-01 3.05775583e-01 2.67051589e-02
      5.08249365e-02 4.55916813e-03 1.27209589e-01 4.55263108e-02
      1.67725697e-01 5.12854196e-02 3.05775583e-01 3.05775583e-01
      3.15966271e-02 1.67597245e-05 4.39163409e-02 3.05775583e-01
      2.50137830e-03 2.12369231e-03 6.84794446e-04 3.05775583e-01
      2.62434751e-01 2.39623487e-02 2.07411777e-02 6.07533613e-03
      3.05775583e-01 3.05775583e-01 3.05775583e-01 1.71039179e-01
      2.88444817e-01 4.48174775e-02 1.08999331e-04 2.51395890e-04
      3.29040806e-03 9.08518136e-02 1.89621921e-03 1.40830148e-02
      4.94542066e-03 2.85385177e-02 4.45392519e-01 1.32487610e-01 0.
      7.55946413e-02 4.45392519e-01 5.60141588e-03 1.54634134e-03
      5.16760629e-04 4.45392519e-01 4.00779277e-01 6.50457814e-02 0.
      2.78867572e-03 3.20957541e-01 3.73427756e-04 0. 0. 2.76643157e-01
      1.27921671e-01 0. 0. 5.03964303e-03 8.76894742e-02 3.73427756e-04
      1.99033457e-04 6.65135958e-05 8.62443000e-02 2.03028619e-02 0. 0.
      1.85911718e-04 2.15389319e-02 2.48951837e-05 0. 0. 1.80179197e-02
      4.96784598e-01 9.75565165e-02 0. 0. 7.06279138e-03 0. 0. 0.
      4.96784598e-01 2.28405371e-01 0. 0. 0. 3.19152445e-01
      1.55197248e-01 0. 4.75941181e-01 2.95377314e-01 0. 0. 0. 0. 0. 0.
      0. 0. 0. 0. 0. 0. 0. 0. 0. 0. 0. 0. 1.64359540e-01 0. 0. 0.
      8.77580866e-02 1.65983420e-02 0. 1.59832150e-01 2.17098564e-01
      4.81700182e-01 0. 0. 0. 4.81700182e-01 7.32343830e-03
      2.52515320e-02 2.35096857e-01 4.81700182e-01 0. 0. 0. 0.
      1.22353975e-02 0. 0. 0. 0. 1.65541083e-01 0. 0. 0. 2.83716798e-01
      0. 0. 0. 1.65541083e-01 2.98117042e-01 1.96810928e-03
      1.64524815e-03 0. 2.98117042e-01 2.47575575e-04 3.47901694e-02
      7.77936056e-02 2.98117042e-01 2.98117042e-01 6.95867389e-02
      6.72690570e-02 5.17789973e-04 7.11185709e-02 2.83242948e-03
      5.94489872e-02 8.41811970e-02 2.98117042e-01 6.56915307e-02
      1.19389724e-02 1.57767106e-02 7.81717070e-04 1.63944751e-01
      1.18158348e-02 9.17913206e-03 7.43456651e-04 4.88158204e-02
      2.98117042e-01 2.98117042e-01 2.98117042e-01 6.29159203e-03
      2.98117042e-01 1.66869447e-01 1.66713208e-01 3.64605077e-02
      2.71355122e-01 3.01141441e-01 6.57894611e-02 5.35458587e-02
      4.64088330e-03 3.01141441e-01 1.76535517e-01 3.01141441e-01
      9.04210657e-02 3.01141441e-01 8.15444160e-03 2.06049677e-04
      4.18438489e-04 1.73694803e-04 7.46547356e-02 1.86944497e-03
      1.35939615e-02 4.81747324e-03 8.42949748e-03 3.01141441e-01
      3.24312113e-02 2.51050685e-02 2.58523808e-03 1.19984753e-01
      7.49793323e-03 3.01141441e-01 3.01141441e-01 3.01141441e-01
      2.72355229e-01 4.20792785e-04 1.16910436e-03 0. 6.81649745e-02
      3.97338415e-04 4.49655280e-02 1.77048445e-01 3.01141441e-01
      1.88618968e-03 2.41755552e-04 7.23421923e-04 0. 1.60012965e-03 0.
      2.08838936e-03 6.97902986e-04 1.88618968e-03 0. 0. 0. 0.
      4.96119064e-05 0. 0. 0. 0. 5.04811168e-01 1.04760728e-03
      3.13482853e-03 0. 5.04811168e-01 0. 7.80502707e-02 2.45743737e-01
      5.04811168e-01 1.49569303e-01 0. 0. 0. 3.44675869e-01 0. 0. 0.
      1.50913909e-01 0. 0. 0. 0. 0. 0. 0. 0. 0. 7.03171408e-03
      3.39350887e-02 0. 0. 2.96152569e-02 0. 0. 0. 0. 2.36299172e-01 0.
      0. 0. 3.75721544e-01 0. 0. 0. 2.36299172e-01 2.17524156e-01
      1.47052035e-01 0. 0. 7.95376599e-01 0. 0. 0. 1.87053397e-01
      1.87833533e-02 1.48839224e-03 1.86708581e-04 0. 2.24153511e-02
      1.08809887e-04 4.53360990e-04 1.51505272e-04 1.84878726e-02
      9.05947387e-02 1.18933094e-03 2.40053880e-04 0. 9.47820991e-02
      2.28793197e-03 9.97394207e-04 3.33311589e-04 9.03649256e-02
      1.61430448e-01 7.11524300e-03 2.80062854e-03 0. 4.01216686e-01
      1.63214840e-03 1.96456444e-03 6.56522869e-04 1.70661360e-01
      5.00304222e-01 6.00946601e-03 3.60080833e-03 0. 5.00304222e-01
      3.43189798e-02 8.14884342e-03 2.72320234e-03 5.00304222e-01
      4.21302095e-02 7.09478837e-03 1.30582051e-02 1.64231495e-03
      1.14252985e-01 1.04127144e-02 6.70028944e-03 1.93772267e-03
      2.72163860e-02 2.66352624e-01 1.71729907e-01 2.65044063e-01
      3.19407135e-02 2.66352624e-01 1.84992179e-01 2.66352624e-01
      1.45994484e-01 2.66352624e-01 2.24168152e-01 3.46479230e-02
      2.69581825e-02 7.46506732e-04 1.79699361e-01 5.99970482e-03
      1.50240294e-03 1.99383241e-03 1.89635143e-01 2.66352624e-01
      1.56875715e-01 2.66352624e-01 2.22523585e-01 2.66352624e-01
      7.67763332e-02 2.03868493e-01 1.24433704e-01 2.66352624e-01</_>
    <_>
      0. 0. 0. 0. 7.26259081e-03 0. 0. 0. 0. 3.51652622e-01
      3.51652622e-01 3.51652622e-01 9.16118454e-03 3.51652622e-01
      3.50002885e-01 3.51652622e-01 3.51652622e-01 3.51652622e-01 0. 0.
      0. 0. 9.02618485e-05 0. 0. 0. 0. 4.71287109e-02 7.05518294e-03
      9.62902792e-03 0. 7.73473643e-03 3.45167762e-04 3.19452733e-02
      2.30686273e-02 6.52280822e-02 1.83313370e-01 1.39903143e-01
      1.95301756e-01 4.91651520e-02 2.25269362e-01 6.92210272e-02
      1.41789556e-01 8.14805180e-02 1.95563897e-01 2.91984469e-01
      2.91984469e-01 2.91984469e-01 1.79945812e-01 2.91984469e-01
      1.72678158e-01 1.07615359e-01 4.18346487e-02 2.14568570e-01
      1.82551872e-02 4.18199226e-03 5.84187880e-02 2.33596936e-02
      2.47774497e-01 9.46427062e-02 1.50012076e-02 3.55701405e-03
      1.73729938e-02 3.42827700e-02 2.21907794e-02 2.46046558e-01
      9.98265371e-02 2.91984469e-01 2.91984469e-01 4.64951508e-02
      1.76352833e-03 1.36166671e-02 2.73312062e-01 2.30120033e-01
      2.95858711e-01 8.80969092e-02 3.42129350e-01 9.66812000e-02
      1.01063505e-01 2.24798881e-02 1.29910037e-01 3.20789181e-02
      1.82361454e-02 2.79904623e-02 3.72132510e-02 3.42129350e-01
      1.46900788e-01 3.42129350e-01 1.06385283e-01 1.73073038e-02
      2.31484696e-02 1.95483565e-02 1.27151400e-01 5.04036173e-02
      3.42129350e-01 2.07115501e-01 2.35352404e-02 7.24674843e-04
      4.95536951e-03 2.58358684e-03 1.20293512e-03 3.15666618e-03
      8.66455585e-02 3.42129350e-01 1.94442913e-01 7.82673210e-02
      1.16380518e-02 2.06302851e-03 4.26552910e-03 1.16871497e-05
      3.49722723e-05 3.55333984e-02 4.48873729e-01 1.88764244e-01
      4.36450332e-01 1.26411811e-01 6.81708800e-03 1.10318550e-04 0. 0.
      2.15366273e-03 1.80786267e-01 2.79238131e-02 1.86588969e-02
      7.67640909e-03 1.16571733e-04 8.55752674e-04 2.35578875e-04
      4.61266283e-03 1.83274910e-01 4.48873729e-01 4.04441953e-01
      1.31718338e-01 1.51231838e-02 1.42292818e-03 0. 0. 9.01782536e-04
      4.14714962e-02 3.00073504e-01 9.06373039e-02 2.21693758e-02
      1.00206863e-03 0. 0. 0. 0. 0. 0. 0. 0. 0. 0. 0. 0. 0. 0. 0. 0. 0.
      0. 0. 0. 0. 0. 0. 0. 0. 0. 0. 0. 0. 0. 0. 0. 0. 0. 0. 0. 0. 0. 0.
      0. 0. 0. 0. 0. 0. 0. 1.25921696e-01 0. 0. 0. 6.32791102e-01 0.
      7.82205258e-03 2.61399243e-03 1.25921696e-01 1.91460893e-01 0. 0.
      0. 0. 0. 0. 0. 1.91460893e-01 3.05103540e-01 1.12278327e-01
      3.70064601e-02 0. 5.29163122e-01 0. 1.17330782e-01 3.92098837e-02
      2.84400731e-01 1.73416152e-03 1.58530427e-03 6.44790679e-02
      2.11069807e-02 2.78356612e-01 1.12369068e-01 2.24297624e-02
      4.93649641e-05 1.73580495e-03 2.53635808e-03 7.41329184e-03
      2.78987557e-01 8.92750770e-02 3.55644554e-01 3.55644554e-01
      9.76779461e-02 8.40008899e-04 2.49796291e-03 4.40615602e-03
      2.49148021e-03 9.13248882e-02 3.23689617e-02 3.52888584e-01
      9.01288614e-02 2.85661370e-02 4.00469842e-04 4.34203679e-03
      5.90449525e-03 9.69149638e-03 3.55644554e-01 1.25371292e-01
      3.55644554e-01 3.55644554e-01 1.20862573e-01 1.59492297e-03
      5.92858577e-03 1.04342459e-03 4.85609611e-03 1.56287894e-01
      5.01005054e-02 3.45115393e-01 2.70334750e-01 5.55066913e-02
      1.20868487e-03 9.80207813e-04 5.96997706e-05 7.63283984e-04
      1.79451685e-02 2.16811910e-01 3.45115393e-01 2.77153641e-01
      1.36929303e-01 1.06713932e-03 2.02504059e-04 1.77114690e-03
      5.95056498e-03 2.09870324e-01 6.72638044e-02 3.45115393e-01
      2.16727600e-01 6.81169108e-02 1.96257746e-03 1.88893685e-03
      2.13891966e-03 4.59755160e-04 2.79509183e-02 2.10100532e-01
      3.45115393e-01 3.45115393e-01 9.91568789e-02 2.08015414e-03
      4.16573230e-03 1.44446440e-05 3.29622941e-04 2.14397982e-02
      2.78343678e-01 3.76796097e-01 3.57093215e-01 1.76792175e-01
      4.76578542e-04 8.56306506e-05 0. 0. 4.70285816e-03 6.35427013e-02
      2.55503505e-01 8.18082839e-02 4.07063253e-02 0. 0. 1.30165759e-02
      1.83959724e-04 3.46583426e-02 2.68932253e-01 3.76796097e-01
      3.76796097e-01 1.38884723e-01 9.36226337e-04 1.91389676e-02
      1.55892642e-02 0. 7.79665168e-03 6.13029450e-02 3.76796097e-01
      1.21002428e-01 3.83742414e-02 0. 2.02293191e-02 0. 0. 0. 0. 0. 0.
      0. 0. 0. 0. 0. 0. 0. 0. 0. 0. 0. 0. 6.85615122e-01 0. 0. 0. 0. 0.
      0. 0. 6.85615122e-01 1.62818223e-01 0. 0. 0. 0. 0. 0. 0.
      1.62818223e-01 3.52019280e-01 9.75021124e-02 2.04779282e-02
      2.86055380e-04 4.79608774e-04 0. 1.43990883e-05 4.81192228e-06
      2.06381738e-01 3.52019280e-01 5.62552437e-02 3.14250751e-03 0.
      2.75012251e-04 0. 6.04151792e-05 2.01896910e-05 3.52019280e-01
      3.52019280e-01 2.19857812e-01 6.04764186e-02 4.34738165e-03
      2.15761270e-02 9.65198269e-05 3.00301850e-04 8.45865798e-05
      3.52019280e-01 3.52019280e-01 1.12586051e-01 6.76445616e-03
      6.31232513e-03 9.01388600e-02 0. 0. 0. 3.52019280e-01
      2.90512949e-01 1.15598232e-01 5.52813858e-02 6.27286509e-02
      2.07777128e-01 4.79142144e-02 8.19053128e-03 2.48522061e-04
      2.90512949e-01 1.94606751e-01 1.25622079e-01 1.82807639e-01
      2.24213451e-01 2.90512949e-01 2.07837865e-01 3.42716090e-02
      1.05478684e-03 1.10581011e-01 2.90512949e-01 1.50480792e-01
      2.14168765e-02 4.16107364e-02 1.92319050e-01 1.75915826e-02
      5.07533550e-04 1.42962293e-04 2.90512949e-01 2.90512949e-01
      1.59563646e-01 4.95087430e-02 1.15739971e-01 2.58964211e-01
      7.68572763e-02 1.99995306e-03 1.10687455e-03 2.33378887e-01
      8.84518698e-02 4.88307551e-02 2.16199711e-01 2.75174171e-01
      3.58530432e-01 2.79509455e-01 4.74576876e-02 2.56983005e-03
      3.66799273e-02 3.01742274e-02 6.36948098e-05 1.34577807e-02
      1.38308585e-01 3.58530432e-01 3.58530432e-01 1.85373172e-01
      4.07079682e-02 1.52516723e-01 1.35615215e-01 6.06010146e-02
      4.43436541e-02 1.33799434e-01 2.68387198e-01 1.04187988e-01
      3.27894930e-03 2.27242848e-03 6.84499368e-02 4.43018004e-02
      5.43741771e-05 1.91213257e-04 1.40413642e-02 3.58530432e-01
      7.47667030e-02 1.01451762e-01 5.03885373e-02 1.95540041e-01
      8.65075216e-02 0. 6.27288641e-03 6.60868511e-02 3.09607059e-01
      2.42658183e-01 1.28263965e-01 1.14289775e-01 2.56669730e-01
      3.09607059e-01 0. 1.42654963e-03 1.49862505e-02 2.38291368e-01
      6.21847250e-02 5.16881719e-02 1.77688986e-01 3.09607059e-01
      1.25715345e-01 0. 0. 6.48894114e-03 2.13630110e-01 4.35805842e-02
      7.93452412e-02 1.46615535e-01 3.09607059e-01 3.09607059e-01 0. 0.
      1.41657144e-03 1.25076398e-01 1.42225884e-02 3.55371721e-02
      2.28457272e-01 3.09607059e-01 3.36880028e-01 0. 0. 0. 0. 0.
      1.50110514e-04 4.72729281e-02 3.36880028e-01 2.90830463e-01
      1.24821221e-04 3.73512739e-04 0. 1.89990606e-05 0. 3.92185934e-02
      1.20234482e-01 3.36880028e-01 3.36880028e-01 0. 0. 0.
      7.14118555e-02 0. 3.30243143e-04 7.12736398e-02 3.36880028e-01
      3.36880028e-01 1.60484429e-04 4.80230636e-04 0. 1.47057055e-02
      2.06350873e-04 1.11974835e-01 2.76533395e-01 3.36880028e-01
      3.03794980e-01 9.44563225e-02 3.34869437e-02 1.99032128e-02
      1.46513835e-01 1.47192115e-02 9.47134122e-02 4.60057221e-02
      3.03794980e-01 3.03794980e-01 4.42260467e-02 2.78731599e-03
      1.91520061e-02 2.48700142e-01 9.48793546e-04 0. 0. 3.03794980e-01
      3.03794980e-01 7.75709935e-03 4.18558866e-02 2.53102362e-01
      3.03794980e-01 7.99207464e-02 3.03794980e-01 2.10453495e-01
      3.03794980e-01 5.12008443e-02 3.56562814e-05 3.16430070e-03
      2.73131859e-02 1.50565624e-01 8.27166997e-03 7.51699805e-02
      2.68587843e-02 4.69217934e-02 3.94592226e-01 1.13057435e-01 0.
      5.82294911e-02 3.94592226e-01 0. 7.59096816e-04 3.25247674e-04
      3.94592226e-01 3.94592226e-01 1.16181277e-01 4.93655039e-04
      2.46817470e-02 3.94592226e-01 3.58115067e-04 1.84508914e-03
      1.63165201e-03 3.94592226e-01 9.48157385e-02 1.59724237e-04 0.
      1.09516075e-02 1.09288521e-01 0. 0. 0. 8.59918445e-02
      3.28035615e-02 3.68594410e-05 0. 1.43691665e-03 3.32122296e-02 0.
      0. 0. 3.03839613e-02 4.35035527e-01 2.44725898e-01 9.93395317e-03
      1.17352158e-01 4.35035527e-01 7.20644509e-03 1.10216429e-02
      1.56091219e-02 4.35035527e-01 2.31139779e-01 2.21316543e-04
      6.62263483e-04 8.99124239e-03 2.59842992e-01 4.80429648e-04
      2.34873602e-04 2.01783419e-01 4.35035527e-01 5.34653058e-03 0. 0.
      2.71200831e-03 5.14391772e-02 0. 0. 0. 5.34653058e-03 0. 0. 0. 0.
      0. 0. 0. 0. 0. 1.76179692e-01 0. 0. 1.26282894e-03 5.50469421e-02
      0. 0. 1.70754060e-01 4.05377418e-01 4.57864583e-01 0. 0.
      2.91422039e-04 4.57864583e-01 0. 0. 2.66209930e-01 4.57864583e-01
      2.45075207e-04 0. 0. 0. 5.82738360e-03 0. 0. 0. 2.45075207e-04
      1.15433544e-01 0. 0. 0. 2.03460723e-01 0. 0. 0. 1.15433544e-01
      3.05201352e-01 0. 0. 0. 2.23578990e-01 0. 1.10705919e-03
      2.13255379e-02 3.08220923e-01 3.08220923e-01 2.50990465e-02
      3.55642848e-02 0. 1.46391436e-01 4.63910488e-04 8.82077962e-02
      1.23726495e-01 3.08220923e-01 3.59745324e-02 4.21070028e-03
      3.85594764e-03 0. 1.28691062e-01 0. 1.46395424e-02 3.32425162e-03
      3.56277078e-02 3.08220923e-01 1.69599101e-01 2.55165845e-01
      7.63369258e-04 3.08220923e-01 9.12400335e-02 3.08220923e-01
      1.42589897e-01 3.08220923e-01 2.88808912e-01 2.80484427e-02
      1.48625210e-01 2.01239794e-01 2.88808912e-01 6.08153455e-02
      2.88808912e-01 1.44468039e-01 2.88808912e-01 4.79512326e-02 0.
      7.06742378e-03 2.51648054e-02 1.37161240e-01 4.66103340e-03
      8.60022232e-02 3.55920345e-02 4.46868129e-02 2.88808912e-01
      2.18154546e-02 1.13057993e-01 5.58889508e-02 1.89567074e-01
      1.12082526e-01 2.88808912e-01 2.26232812e-01 2.88808912e-01
      2.40634516e-01 0. 3.21246567e-03 9.09449439e-03 2.08632842e-01
      2.27884710e-04 4.67708111e-02 3.72655764e-02 2.67686725e-01
      8.62792283e-02 0. 0. 1.65677955e-03 8.27649906e-02 0.
      2.12733122e-03 7.10916705e-04 7.55043849e-02 6.27203612e-03 0. 0.
      3.82333732e-04 1.11552784e-02 0. 9.66968713e-04 3.23143933e-04
      5.55371447e-03 5.48456550e-01 0. 0. 2.48516947e-02 5.48456550e-01
      0. 9.21843573e-03 3.08063906e-03 5.48456550e-01 6.54455870e-02 0.
      0. 5.73500572e-03 2.50710905e-01 0. 4.19019815e-03 1.40029041e-03
      6.33017793e-02 0. 0. 0. 0. 0. 0. 0. 0. 0. 0. 0. 0. 0. 0. 0. 0. 0.
      0. 2.99077541e-01 0. 0. 0. 5.78381360e-01 0. 0. 0. 2.99077541e-01
      2.44699821e-01 0. 0. 0. 4.89399642e-01 0. 0. 0. 2.44699821e-01
      2.98604276e-03 0. 2.89017917e-04 5.91179472e-04 8.83593317e-03
      3.51252093e-04 0. 0. 3.68853891e-03 1.10769846e-01 0.
      6.35839358e-04 1.69538765e-03 1.16882473e-01 1.52209238e-03
      3.07473703e-04 1.02752303e-04 1.17074139e-01 3.19742374e-02 0.
      1.25241082e-03 2.56177760e-03 1.71631783e-01 5.26878191e-03 0. 0.
      3.50183882e-02 5.54470301e-01 0. 2.75530387e-03 1.15578026e-02
      5.54470301e-01 2.28313860e-02 1.33238593e-03 4.45259939e-04
      5.54470301e-01 2.41288282e-02 5.74856857e-03 5.29305730e-03
      1.91089406e-04 8.07475373e-02 1.13695954e-04 7.52226403e-03
      1.72628369e-03 2.45029535e-02 2.69996017e-01 1.39161482e-01
      2.56096810e-01 1.76454207e-03 2.69996017e-01 7.50581697e-02
      2.69996017e-01 1.83276951e-01 2.69996017e-01 2.69996017e-01
      3.91635001e-02 1.92132890e-02 2.23780912e-03 2.69996017e-01
      1.70543930e-03 7.35398848e-04 2.45757372e-04 2.69996017e-01
      2.69996017e-01 2.40677327e-01 2.55867690e-01 9.27655771e-03
      2.69996017e-01 4.95525543e-03 5.97812645e-02 8.56230557e-02
      2.69996017e-01</_>
    <_>
      0. 0. 0. 0. 0. 0. 0. 0. 0. 0. 0. 0. 0. 0. 0. 0. 0. 0. 0. 0. 0. 0.
      0. 0. 0. 0. 0. 0. 0. 0. 0. 0. 0. 0. 0. 0. 2.32685416e-04 0. 0. 0.
      1.36719842e-03 2.90921926e-05 1.40528500e-04 4.22091907e-05
      2.32685416e-04 7.74660753e-03 4.68918867e-03 1.43126577e-01
      4.79508787e-01 4.88541365e-01 7.97968879e-02 1.33975246e-03
      3.76427255e-04 7.74660753e-03 4.94840380e-04 0. 0. 1.15628864e-04
      1.37715777e-02 1.26066167e-04 4.96448425e-04 1.45308164e-04
      4.94840380e-04 2.94634770e-03 0. 1.41331911e-01 4.88541365e-01
      4.88541365e-01 4.44877334e-02 3.55322030e-03 8.78481136e-04
      2.94634770e-03 1.65599007e-02 7.00388197e-03 1.39886856e-01
      3.90976906e-01 3.90976906e-01 7.06028789e-02 3.94583418e-04
      1.08746586e-04 1.59337167e-02 1.40054692e-02 3.65093234e-03
      4.18395884e-02 1.21679522e-01 3.90976906e-01 1.94708500e-02 0.
      5.31455851e-04 1.63093638e-02 1.05063466e-03 0. 1.02902383e-01
      3.90976906e-01 3.90976906e-01 3.81908305e-02 9.50290181e-04
      2.17399793e-04 1.05063466e-03 5.26230375e-04 0. 7.36750066e-02
      1.34525225e-01 3.90976906e-01 2.82575507e-02 0. 0. 5.26230375e-04
      1.15741999e-03 1.18296286e-02 8.21445137e-02 2.22430006e-01
      4.23059613e-01 1.44026550e-02 2.43304092e-02 6.00039214e-03
      1.45877264e-02 6.56918099e-04 1.48773566e-02 1.01912864e-01
      2.41772473e-01 4.23059613e-01 1.34777306e-02 3.15022469e-02
      6.66027050e-03 1.12357084e-02 3.67449160e-04 0. 2.31557801e-01
      1.81390285e-01 4.23059613e-01 8.35992619e-02 1.09520806e-04
      3.66000204e-05 3.67449160e-04 3.57687066e-04 0. 1.80100486e-01
      1.47384673e-01 4.23059613e-01 6.60898462e-02 2.40945767e-04
      8.05200470e-05 3.57687066e-04 2.42284057e-03 4.46437187e-02
      2.89749175e-01 5.24142802e-01 5.56589246e-01 1.74447130e-02
      9.58740115e-02 1.51963802e-02 2.42284057e-03 0. 0. 0. 0. 0. 0. 0.
      0. 0. 1.60267425e-03 0. 0. 6.61316738e-02 5.56589246e-01
      8.15257896e-03 1.19594415e-03 3.99664568e-04 1.60267425e-03 0. 0.
      0. 0. 0. 0. 0. 0. 0. 0. 0. 0. 0. 0. 0. 0. 0. 0. 0. 0. 0. 0. 0. 0.
      0. 0. 0. 4.44255173e-01 2.27539122e-01 2.83813495e-02 0.
      4.50360531e-04 0. 0. 0. 4.44255173e-01 4.44255173e-01
      3.91831666e-01 0. 0. 0. 0. 0. 0. 4.44255173e-01 1.58172115e-04 0.
      6.71122398e-05 2.18123896e-03 2.78820731e-02 1.97604546e-04
      1.95498666e-04 6.14768142e-05 1.58172115e-04 7.32648594e-04 0.
      1.00939572e-01 3.73167306e-01 3.73167306e-01 4.54386882e-03
      1.02149206e-03 2.83533620e-04 7.32648594e-04 3.73167306e-01
      3.16257775e-02 7.23061571e-03 1.08006559e-02 5.66702262e-02
      1.30280142e-03 9.39076781e-05 3.13822966e-05 3.29230130e-01
      3.29710990e-01 4.30792477e-03 1.67635158e-01 3.35797250e-01
      3.73167306e-01 1.64717957e-02 4.06933279e-04 1.35989947e-04
      2.56177604e-01 3.64955049e-04 0. 1.20008804e-01 3.94155115e-01
      3.94155115e-01 6.43697288e-03 5.17279259e-04 1.31086737e-04
      3.64955049e-04 8.92266282e-04 5.01240975e-05 6.23996742e-02
      1.21754788e-01 3.94155115e-01 2.51741465e-02 0. 0. 8.92266282e-04
      8.73143598e-02 3.11217643e-03 1.49162978e-01 3.28327000e-01
      3.94155115e-01 1.26683321e-02 1.78308474e-04 5.95875572e-05
      5.58308512e-02 1.14366338e-02 2.17204419e-04 2.56180409e-02
      2.04123035e-01 3.94155115e-01 3.57521698e-02 1.04152365e-02
      7.39913294e-03 2.48884317e-02 1.24638528e-03 6.89202716e-05
      1.86741918e-01 2.10543185e-01 3.59399647e-01 8.38283598e-02
      3.18962615e-04 8.00243433e-05 1.24638528e-03 5.97135513e-04
      5.98153165e-05 1.43119588e-01 1.42280057e-01 3.59399647e-01
      6.51142821e-02 4.82780713e-04 1.02888444e-04 5.97135513e-04
      6.86323121e-02 3.90701083e-04 4.73132581e-02 3.59399647e-01
      3.59399647e-01 8.41060951e-02 3.17170657e-02 8.25855881e-02
      1.24887429e-01 1.59827754e-01 3.77545279e-04 2.46179327e-02
      2.35485390e-01 3.59399647e-01 4.59468849e-02 2.89487336e-02
      1.39817581e-01 2.78964192e-01 4.79560404e-04 8.04381489e-05
      2.40700683e-04 1.35229889e-03 1.89351395e-01 2.62080994e-03
      5.50654193e-04 9.50216927e-05 4.79560404e-04 0. 0. 0. 0. 0. 0. 0.
      0. 0. 4.02132034e-01 4.57862276e-04 1.37009320e-03 7.44725752e-04
      3.29717919e-02 1.51362282e-03 6.32524490e-02 4.02132034e-01
      4.02132034e-01 4.02132034e-01 0. 0. 0. 4.24046681e-04 0.
      6.06066138e-02 3.77891749e-01 4.02132034e-01 2.97015518e-01
      1.35875985e-01 3.50010507e-02 3.56150762e-04 1.07855462e-02
      7.45564583e-04 8.11907521e-05 2.71325225e-05 2.97015518e-01
      2.97015518e-01 2.29356498e-01 4.25308645e-02 8.56481201e-04
      2.39659790e-02 3.23078013e-03 0. 0. 2.97015518e-01 2.97015518e-01
      9.71005931e-02 5.40045686e-02 4.33461973e-03 8.04536119e-02
      1.11834696e-02 9.17425100e-03 9.14907176e-03 2.54705071e-01
      2.97015518e-01 2.97015518e-01 2.97015518e-01 1.86350793e-02
      2.03874469e-01 4.84616943e-02 2.31459475e-04 7.73498832e-05
      2.97015518e-01 2.88839072e-01 6.75513297e-02 2.88695488e-02
      3.21086030e-03 5.25194928e-02 1.80842448e-03 1.18872689e-04
      5.35126173e-06 2.88839072e-01 2.88839072e-01 4.31186054e-03
      1.03100300e-01 4.96980734e-02 2.88839072e-01 8.32140725e-03
      1.52836306e-04 6.88019281e-06 2.88839072e-01 2.88839072e-01
      2.02675849e-01 2.88839072e-01 3.79031673e-02 1.93363309e-01
      1.60311181e-02 4.96313907e-04 1.21664489e-04 2.88839072e-01
      2.88839072e-01 5.03004231e-02 1.16057053e-01 3.14382724e-02
      2.10540310e-01 1.32189295e-03 6.52610383e-04 1.23265156e-04
      2.88839072e-01 2.94152349e-01 8.75952747e-03 2.17941850e-01
      1.19448297e-01 2.94152349e-01 1.81505717e-02 7.25555437e-05
      3.26621443e-06 2.26104781e-01 4.99449708e-02 1.45985556e-04
      1.43594537e-02 1.60720706e-01 2.94152349e-01 7.29454011e-02
      2.93147117e-02 2.08255909e-02 9.28755924e-02 2.94152349e-01
      1.66405309e-02 6.62277862e-02 1.01736961e-02 2.94152349e-01
      3.09000979e-03 1.02079706e-03 4.25869948e-04 2.94152349e-01
      2.85875201e-01 5.74222067e-04 1.88270980e-03 4.23217984e-03
      2.94152349e-01 8.63754079e-02 1.98928058e-01 1.19294509e-01
      2.94152349e-01 1.20294280e-01 1.33747846e-04 1.28933676e-02
      1.44052118e-01 2.82830685e-01 6.49115518e-02 4.38826829e-02
      1.40773579e-01 2.00924560e-01 2.82830685e-01 1.31926325e-04
      6.09158725e-03 6.75791129e-02 1.51863515e-01 2.97642536e-02
      5.11287898e-02 2.69855857e-01 2.82830685e-01 1.85638636e-01
      1.69654901e-04 7.50498613e-04 3.98638658e-03 1.55167222e-01
      5.53069860e-02 1.78816408e-01 1.49272010e-01 2.46732652e-01
      2.82830685e-01 5.84865265e-05 1.59104355e-02 4.57704393e-03
      2.31416196e-01 3.06836534e-02 2.82830685e-01 2.82830685e-01
      2.82830685e-01 2.83686340e-01 2.03563777e-05 6.09138115e-05 0.
      4.34727129e-03 1.16437062e-04 2.97989156e-02 1.98164448e-01
      2.83686340e-01 2.83686340e-01 0. 0. 0. 4.54434543e-04
      2.41917060e-05 5.25274053e-02 1.89542130e-01 2.83686340e-01
      2.83686340e-01 0. 3.99271883e-02 6.68896642e-03 1.20499529e-01
      4.19637300e-02 2.83686340e-01 2.83686340e-01 2.83686340e-01
      2.83686340e-01 0. 1.81487221e-02 4.66329465e-03 6.50855154e-02
      3.14937532e-02 1.53455600e-01 2.57830352e-01 2.83686340e-01
      1.18786149e-01 4.60393615e-02 4.33803946e-02 2.01767404e-02
      2.13308126e-01 2.19810195e-02 6.01584837e-02 6.84519559e-02
      1.17597051e-01 2.52700835e-01 2.52700835e-01 2.52700835e-01
      4.85150181e-02 2.52700835e-01 3.58781815e-02 1.22719642e-03
      8.61795677e-04 2.04066902e-01 2.40122512e-01 8.69325921e-02
      7.62020051e-02 3.89101803e-02 2.52700835e-01 8.17530975e-02
      2.48515069e-01 9.25928578e-02 2.11423591e-01 2.17219532e-01
      2.32043788e-01 2.52700835e-01 2.79242024e-02 2.52700835e-01
      3.26541848e-02 2.52700835e-01 1.14240833e-01 2.10976839e-01
      2.58698463e-01 2.58698463e-01 2.58698463e-01 8.92947763e-02
      1.39762729e-01 1.01698944e-02 6.60195365e-04 8.50185927e-04
      2.25801066e-01 2.58698463e-01 1.38623402e-01 2.25779489e-01
      6.75646067e-02 2.58698463e-01 5.66538307e-04 7.39164941e-04
      4.33744484e-04 2.58698463e-01 1.97945416e-01 2.23410591e-01
      2.58698463e-01 3.78056765e-02 1.22080326e-01 4.45415489e-02
      2.58698463e-01 1.19703196e-01 1.59004733e-01 2.22842470e-01
      7.49420747e-02 1.07852794e-01 2.52777506e-02 2.21463427e-01
      2.97550261e-02 7.33107254e-02 4.14084718e-02 1.92533314e-01
      2.66287059e-01 2.61681098e-02 2.53251828e-02 1.62047464e-02
      2.66287059e-01 1.04591902e-03 9.73693968e-04 1.12168945e-03
      2.66287059e-01 2.66287059e-01 5.95269201e-04 2.03628000e-03
      6.60910876e-03 2.66287059e-01 1.14698499e-01 2.66287059e-01
      1.97168276e-01 2.66287059e-01 2.66287059e-01 1.44068515e-02
      1.06846076e-02 1.30601376e-02 2.66287059e-01 1.77523959e-02
      3.26530938e-03 3.64882452e-03 2.66287059e-01 2.39604443e-01
      8.54785368e-02 7.94636011e-02 1.50287570e-02 2.66287059e-01
      5.58515675e-02 1.78846702e-01 9.50265005e-02 2.17823118e-01
      1.51614010e-01 7.49212643e-03 8.65253527e-03 1.13991182e-03
      1.25265762e-01 8.38472545e-02 2.66756803e-01 2.33668506e-01
      2.18658701e-01 1.75492749e-01 1.75664239e-02 3.84744033e-02
      4.05444670e-03 1.67673260e-01 7.47135505e-02 2.66756803e-01
      2.66756803e-01 2.66756803e-01 1.34825915e-01 8.17120522e-02
      1.47014409e-01 5.84041141e-03 6.55771419e-02 4.46430929e-02
      2.66756803e-01 1.77405655e-01 1.91091210e-01 1.90252051e-01
      8.18592086e-02 1.71422333e-01 9.02454555e-03 1.82469085e-01
      6.63095266e-02 2.66756803e-01 2.60929704e-01 2.38541141e-01
      9.21583995e-02 6.40067086e-03 6.44666627e-02 1.12855658e-02
      1.42291009e-01 1.10648446e-01 2.47160509e-01 2.47160509e-01
      1.88473791e-01 1.42966151e-01 6.20468035e-02 7.13656396e-02
      1.64293647e-02 1.07429549e-01 7.44092688e-02 2.38907963e-01
      2.15569824e-01 1.83943987e-01 1.44557491e-01 5.98404109e-02
      1.43898949e-01 5.75502031e-02 1.66731223e-01 9.26667303e-02
      2.47160509e-01 2.01775014e-01 1.58302292e-01 2.47160509e-01
      1.90408424e-01 2.47160509e-01 1.36695176e-01 1.94734603e-01
      6.61996379e-02 2.47160509e-01 2.38890246e-01 2.47160509e-01
      1.97715670e-01 2.57790275e-02 3.30854617e-02 8.76261014e-03
      2.56944984e-01 4.83498424e-02 1.59475118e-01 4.31814343e-02
      1.84239477e-01 1.27116129e-01 7.91919231e-02 7.24459812e-02
      7.37465569e-04 2.56944984e-01 9.44856331e-02 2.56944984e-01
      2.28054658e-01 2.36254886e-01 2.23464295e-01 2.60819658e-03
      5.00852242e-03 1.62735916e-04 1.73449069e-01 4.88458350e-02
      2.27050737e-01 1.78706899e-01 2.56944984e-01 2.30908230e-01
      9.25813802e-03 1.22741237e-02 3.75544405e-05 2.56944984e-01
      1.27249792e-01 2.56944984e-01 2.25110710e-01 2.56944984e-01
      1.25905842e-01 7.53339231e-02 8.30791071e-02 3.50617105e-04
      1.65983647e-01 2.01104552e-01 2.74828523e-01 2.74828523e-01
      2.74828523e-01 1.02721974e-01 7.65954610e-03 1.15651200e-02
      4.86077182e-03 1.91745624e-01 1.52560875e-01 2.19880059e-01
      1.90924391e-01 2.23183796e-01 1.82312280e-01 1.35630714e-02
      2.01714709e-02 3.33626900e-04 1.94126606e-01 1.77684024e-01
      2.74828523e-01 2.54973292e-01 2.74828523e-01 1.31136745e-01
      3.94722028e-03 4.74048266e-03 2.91570113e-03 1.85986146e-01
      1.29486233e-01 1.11597106e-01 1.36198044e-01 2.23731250e-01
      1.38538122e-01 1.02350209e-02 8.28772609e-04 9.77024902e-03
      2.64453053e-01 3.04503851e-02 9.99714620e-03 8.50857794e-03
      1.76714674e-01 2.84426242e-01 2.84426242e-01 2.84426242e-01
      2.28060856e-02 2.77688324e-01 8.40717554e-03 4.99233883e-03
      1.83516927e-03 2.84426242e-01 1.25130773e-01 8.36679898e-03
      8.38536420e-04 6.78393478e-03 2.28783622e-01 1.94616150e-02
      7.99346622e-03 6.12796610e-03 1.58502355e-01 2.84426242e-01
      2.84426242e-01 2.37343773e-01 2.26408448e-02 2.84426242e-01
      4.02936293e-03 1.95222849e-03 7.27312174e-04 2.84426242e-01
      1.89774245e-01 2.41826326e-01 2.41826326e-01 2.17801407e-02
      5.94350584e-02 7.05779297e-03 2.65279077e-02 2.71296669e-02
      1.91494584e-01 2.11113125e-01 2.03994155e-01 2.41826326e-01
      7.20105469e-02 1.98362410e-01 1.17918132e-02 4.91484739e-02
      5.84005527e-02 1.84725836e-01 2.41826326e-01 2.32271746e-01
      2.41826326e-01 4.98230346e-02 1.83701724e-01 4.03565401e-03
      3.80955846e-03 4.66250163e-03 2.41826326e-01 2.41826326e-01
      2.41826326e-01 2.41826326e-01 1.99238986e-01 1.83231696e-01
      7.68895121e-03 9.09882039e-03 1.24461260e-02 2.41826326e-01
      2.28262261e-01 1.59139916e-01 2.28262261e-01 1.63127899e-01
      1.86572790e-01 1.79114882e-02 7.83869475e-02 4.41395864e-02
      1.57890752e-01 2.16938511e-01 1.42895028e-01 2.28262261e-01
      2.25277454e-01 1.81869656e-01 2.99899485e-02 2.28262261e-01
      1.26709908e-01 2.17311054e-01 2.28262261e-01 1.95721194e-01
      2.28262261e-01 2.01030508e-01 1.11022137e-01 7.56376749e-03
      9.32750478e-03 1.30633442e-02 1.62415206e-01 1.48832873e-01
      1.38732627e-01 2.28262261e-01 2.28262261e-01 2.01817632e-01
      1.98192969e-02 1.61965728e-01 5.08042872e-02 1.27433896e-01</_>
    <_>
      2.86999345e-01 1.92558303e-01 2.86999345e-01 1.35099381e-01
      2.86999345e-01 6.01580665e-02 4.65074405e-02 1.76076014e-02
      2.86999345e-01 2.29062751e-01 4.38601673e-02 3.22024375e-02
      5.64570888e-04 2.40721703e-01 1.89113460e-04 8.18185799e-04
      6.74730050e-04 2.06854209e-01 2.86999345e-01 1.97516218e-01
      2.86999345e-01 2.68094130e-02 2.86999345e-01 6.32570609e-02
      2.17808589e-01 3.36565115e-02 2.86999345e-01 3.63791771e-02
      2.07900908e-02 6.51584119e-02 0. 1.44329369e-01 6.48320362e-04
      1.06689250e-02 7.79560418e-04 3.66020352e-02 4.64541256e-01 0.
      1.56845863e-03 3.20824608e-03 4.64541256e-01 0. 8.73653032e-03
      9.11856908e-03 4.64541256e-01 1.91947103e-01 0. 1.04563907e-04
      2.13883060e-04 4.60229188e-01 0. 2.76618055e-03 3.74212372e-03
      1.92229673e-01 1.08491421e-01 7.71306397e-04 2.30803434e-03 0.
      1.23447940e-01 0. 6.61510974e-03 2.21065618e-03 1.11358695e-01
      6.58979118e-02 9.91679728e-04 2.96747242e-03 0. 1.10266127e-01 0.
      6.90314593e-03 2.30691279e-03 7.83227980e-02 2.32944638e-02 0. 0.
      0. 3.73110287e-02 0. 0. 0. 2.32944638e-02 0. 0. 0. 0.
      3.17485468e-03 0. 0. 0. 0. 5.74660301e-01 5.25681907e-03
      1.57303456e-02 0. 5.74660301e-01 0. 2.67559718e-02 8.94138217e-03
      5.74660301e-01 0. 0. 0. 0. 0. 0. 0. 0. 0. 2.06234995e-02 0. 0.
      7.24623445e-04 1.51362151e-01 0. 6.50303031e-04 2.17320397e-04
      2.06234995e-02 5.55053890e-01 0. 0. 1.08693512e-02 5.55053890e-01
      0. 1.15690043e-03 3.86616768e-04 5.55053890e-01 1.97525695e-03 0.
      0. 4.83082295e-05 8.14152882e-03 0. 0. 0. 1.97525695e-03
      1.28441304e-01 0. 0. 7.24623445e-04 1.24138221e-01 0. 0. 0.
      1.19745210e-01 2.44245321e-01 0. 0. 1.39293261e-03 3.03815186e-01
      0. 1.27467616e-02 5.09026125e-02 2.46205062e-01 3.03815186e-01
      2.44972832e-03 3.23833054e-04 2.63942010e-03 2.81769067e-01
      5.73174970e-04 2.25079611e-01 1.80736899e-01 3.03815186e-01
      2.51246430e-02 0. 0. 7.13337271e-04 7.46604502e-02 0.
      1.54643282e-02 4.29230602e-03 2.36709174e-02 3.03815186e-01
      3.30055109e-03 8.67907715e-04 2.42369752e-02 3.03815186e-01
      3.82116632e-05 3.03815186e-01 2.39694804e-01 3.03815186e-01
      3.19527596e-01 2.18170866e-01 3.19527596e-01 1.60746207e-03
      3.19527596e-01 1.11357765e-02 2.47990146e-01 2.10238434e-02
      3.19527596e-01 2.38119233e-02 1.29962312e-02 4.03912254e-02
      6.93558250e-05 1.05331413e-01 1.15311542e-03 1.61360968e-02
      1.23328669e-03 2.58577764e-02 3.19527596e-01 5.30493259e-02
      2.60044578e-02 1.07164131e-04 1.24562562e-01 1.56306545e-03
      2.88533475e-02 5.59612215e-02 3.19527596e-01 3.19527596e-01
      1.00846903e-03 3.01771285e-03 1.04033737e-03 1.58602029e-01
      6.77375589e-03 6.76998263e-03 8.79402682e-02 3.19527596e-01
      7.39023089e-02 1.33053272e-03 3.98144685e-03 6.94930961e-04
      8.54595676e-02 7.93913146e-04 1.39609305e-02 4.66550468e-03
      7.66871274e-02 8.19524154e-02 1.15744572e-03 3.46350623e-03
      3.15877725e-04 1.48118228e-01 0. 1.45189427e-02 4.85198246e-03
      7.97929019e-02 3.98817241e-01 3.40241729e-03 1.01813041e-02
      1.04239648e-02 3.98817241e-01 1.19086970e-02 3.26388106e-02
      3.98817241e-01 3.98817241e-01 3.08317006e-01 1.55874668e-03
      4.66435682e-03 4.73816600e-03 1.93225294e-01 0. 1.11598177e-02
      1.64033979e-01 3.80446076e-01 2.87845641e-01 1.50262297e-03
      4.49640350e-03 0. 4.00804430e-01 0. 1.44971376e-02 4.84469300e-03
      2.82201767e-01 0. 0. 0. 0. 0. 0. 0. 0. 0. 4.00804430e-01
      1.00174861e-04 2.99760228e-04 0. 1.72845438e-01 0. 4.41909023e-03
      1.47678400e-03 4.00804430e-01 4.00804430e-01 2.40118429e-03
      7.18523189e-03 0. 8.43612943e-03 0. 0. 0. 4.00804430e-01 0. 0. 0.
      0. 0. 0. 0. 0. 0. 0. 0. 0. 0. 0. 0. 0. 0. 0. 4.31036204e-01
      5.58904968e-02 1.62298493e-02 0. 7.43932091e-04 0. 0. 0.
      4.31036204e-01 4.31036204e-01 4.31036204e-01 2.51685411e-01 0. 0.
      0. 0. 0. 4.31036204e-01 1.44721766e-03 0. 0. 2.62799324e-04
      2.42560133e-02 0. 1.04961386e-02 2.91471416e-03 1.44721766e-03
      2.42425337e-01 9.49301291e-04 5.96550992e-04 3.71096432e-02
      3.47568125e-01 0. 3.47568125e-01 3.47568125e-01 2.20147789e-01
      3.47568125e-01 9.21633467e-02 3.30335870e-02 7.64900542e-05
      5.16441884e-04 0. 0. 0. 3.47568125e-01 3.47568125e-01
      1.69025082e-02 3.92928757e-02 3.41547048e-03 8.94538611e-02 0.
      1.02759793e-01 1.07652053e-01 3.47568125e-01 3.40078622e-01
      1.19759905e-04 3.58365942e-04 0. 5.35755558e-03 3.02092085e-04
      1.79265663e-02 7.05791414e-02 3.40078622e-01 3.40078622e-01
      1.94802968e-04 5.82922716e-04 3.17024853e-04 4.53218333e-02
      2.02397909e-03 1.23799881e-02 1.97681218e-01 3.40078622e-01
      3.40078622e-01 4.61332274e-06 1.38047662e-05 0. 4.15322051e-04 0.
      8.14843923e-03 3.05807795e-02 3.40078622e-01 3.40078622e-01
      1.85195495e-05 5.54175567e-05 0. 1.12878822e-03 0. 9.77118500e-03
      1.53799593e-01 3.40078622e-01 3.26551586e-01 1.71976557e-04
      5.14618354e-04 9.20350838e-04 1.20620504e-01 8.22738162e-04
      4.77689058e-02 2.76244164e-01 3.26551586e-01 1.71190709e-01
      8.71263474e-05 2.60714995e-04 1.19483052e-03 2.63891220e-01 0.
      7.89171234e-02 1.06584325e-01 2.13264927e-01 2.75682360e-01
      6.93609036e-05 2.07554258e-04 3.59277154e-04 3.26551586e-01 0.
      5.50135821e-02 2.20450550e-01 3.26551586e-01 1.58530921e-01
      5.39473658e-05 1.61431104e-04 1.33949844e-03 3.26551586e-01 0.
      1.00462355e-01 9.51356292e-02 1.91033959e-01 5.70250899e-02 0. 0.
      9.34544834e-04 2.37376422e-01 0. 5.03117889e-02 1.57534070e-02
      5.63528687e-02 1.90795317e-01 2.23363992e-02 1.10631406e-01
      8.60690325e-02 3.92700970e-01 2.99649709e-03 0. 0. 1.39855251e-01
      5.03118336e-02 0. 0. 1.34802924e-03 4.85486090e-01 0.
      6.46865889e-02 2.02543810e-02 4.97889929e-02 1.83907047e-01
      2.85605229e-02 1.41768456e-01 3.86523604e-01 4.85486090e-01
      1.03121521e-02 0. 0. 1.18412688e-01 3.05937022e-01 3.98612693e-02
      7.10443780e-02 5.12905531e-02 1.76604360e-01 1.43222511e-03 0. 0.
      2.53731251e-01 3.05937022e-01 2.18141899e-01 9.66083407e-02
      1.17530227e-02 2.85737440e-02 3.05462861e-04 5.80218366e-05
      1.93898795e-05 3.05937022e-01 3.05937022e-01 4.20658551e-02
      8.86757523e-02 2.26579994e-01 3.05937022e-01 4.50405013e-03 0. 0.
      2.39746660e-01 3.05937022e-01 1.74694389e-01 8.28519091e-02
      5.09630255e-02 1.43522948e-01 7.62228563e-04 7.45995058e-05
      2.49298446e-05 3.05937022e-01 3.43317479e-01 1.67452171e-01
      5.99759780e-02 5.11261496e-05 2.75304250e-04 0. 2.97464198e-04
      9.94072980e-05 3.43317479e-01 3.43317479e-01 2.12603677e-02
      4.32893112e-02 7.66892277e-04 8.60385946e-04 0. 6.66279520e-04
      2.22658928e-04 3.43317479e-01 3.43317479e-01 1.30240574e-01
      4.66343090e-02 1.17983427e-05 2.28003832e-04 0. 3.82453931e-04
      1.27809384e-04 3.43317479e-01 3.43317479e-01 1.18273245e-02
      1.97831672e-02 1.76975125e-04 5.60389250e-04 0. 3.97830008e-04
      1.32947782e-04 3.43317479e-01 6.16434868e-03 0. 0. 0.
      8.83221906e-03 0. 0. 0. 6.16434868e-03 6.91215694e-01
      8.75911862e-03 2.62106210e-02 0. 1.00333504e-01 0. 3.85068208e-02
      1.28683019e-02 6.91215694e-01 0. 0. 0. 0. 0. 0. 0. 0. 0. 0.
      2.02133507e-03 6.04860531e-03 0. 1.56534478e-01 0. 1.81219727e-02
      6.05604518e-03 0. 1.79837178e-02 1.24901489e-04 4.76351386e-04
      1.57071778e-03 4.98414665e-01 7.31210923e-04 7.03208661e-03
